\data\
ngram 1=586
ngram 2=1144
ngram 3=1253

\1-grams:
-3.0749142	<unk>	0
0	<s>	-0.12363397
-2.855287	</s>	0
-2.9691973	In	-0.037148416
-2.9691973	addition	-0.037148416
-1.3353226	,	-0.094161354
-2.9691973	since	-0.037148416
-2.9691973	terrorists	-0.037148416
-2.855287	know	-0.037148416
-2.0227115	that	-0.037148416
-2.9691973	there	-0.037148416
-2.2222846	will	-0.08463004
-2.2222846	be	-0.048704762
-2.855287	extra	-0.037148416
-2.9691973	precautions	-0.037148416
-2.7895873	taken	-0.037148416
-1.4366567	to	-0.10614377
-2.9691973	safeguard	-0.037148416
-1.3876505	the	-0.08966603
-2.7895873	nuclear	-0.037148416
-2.9691973	reactors	-0.037148416
-2.3720477	it	-0.07964133
-2.2907424	more	-0.037148416
-2.855287	difficult	-0.1468379
-2.0227115	for	-0.10164451
-2.855287	them	-0.037148416
-2.9691973	sabotage	-0.037148416
-2.855287	country	-0.037148416
-2.6024983	by	-0.037148416
-2.9691973	means	-0.037148416
-1.5161346	of	-0.17028332
-1.3784795	.	-0.8868276
-2.9691973	For	-0.037148416
-2.9691973	compressed	-0.037148416
-2.9691973	hydrogen	-0.037148416
-2.9691973	storage	-0.037148416
-2.855287	many	-0.037148416
-2.9691973	numerical	-0.037148416
-2.9691973	modeling	-0.037148416
-2.3720477	have	-0.037148416
-2.7895873	been	-0.037148416
-2.855287	done	-0.037148416
-2.7895873	through	-0.037148416
-2.9691973	computational	-0.037148416
-2.9691973	fluid	-0.037148416
-2.9691973	dynamics	-0.037148416
-2.855287	tools	-0.037148416
-2.9691973	Using	-0.037148416
-2.9691973	RFID	-0.037148416
-2.9691973	track	-0.037148416
-2.3720477	people	-0.037148416
-2.9691973	raises	-0.037148416
-2.855287	issues	-0.037148416
-2.2907424	(	-0.037148416
-2.9691973	MYE	-0.037148416
-2.9691973	forum	-0.037148416
-2.9691973	08/06/2006	-0.037148416
-2.9691973	para.1	-0.037148416
-2.2907424	)	-0.11928125
-2.9691973	.The	-0.037148416
-2.855287	quality	-0.1468379
-2.9691973	infra-structure	-0.037148416
-1.6293666	and	-0.056327052
-2.9691973	education	-0.037148416
-2.9691973	serving	-0.037148416
-2.0227115	are	-0.037148416
-2.9691973	low	-0.037148416
-2.855287	The	-0.037148416
-2.855287	same	-0.037148416
-2.9691973	goes	-0.037148416
-2.9691973	teaching	-0.037148416
-2.855287	but	-0.037148416
-2.855287	main	-0.037148416
-2.9691973	point	-0.037148416
-2.9691973	here	-0.037148416
-2.2907424	is	-0.055140324
-2.855287	ones	-0.037148416
-2.7895873	who	-0.037148416
-2.9691973	right	-0.037148416
-2.9691973	change	-0.037148416
-2.9691973	improve	-0.037148416
-2.9691973	entire	-0.037148416
-2.9691973	thing	-0.037148416
-2.855287	hardly	-0.037148416
-2.9691973	taking	-0.037148416
-2.1111338	a	-0.037148386
-2.855287	concern	-0.037148416
-2.855287	This	-0.037148416
-2.9691973	does	-0.037148416
-2.9691973	bring	-0.037148416
-2.7895873	some	-0.037148416
-2.9691973	benefits	-0.037148416
-2.9691973	elderly	-0.037148416
-2.9691973	Developing	-0.037148416
-2.9691973	new	-0.037148416
-2.9691973	inventions	-0.037148416
-2.9691973	requires	-0.037148416
-2.9691973	substantial	-0.037148416
-2.7895873	funding	-0.107116014
-2.6024983	so	-0.037148416
-2.9691973	engineers	-0.037148416
-1.984447	in	-0.052323304
-2.855287	China	-0.037148416
-2.9691973	faced	-0.037148416
-2.3720477	with	-0.07072474
-2.9691973	difficulty	-0.037148416
-2.9691973	insufficient	-0.037148416
-2.9691973	innovating	-0.037148416
-2.9691973	industries	-0.037148416
-2.855287	Thus	-0.037148416
-2.9691973	opponents	-0.037148416
-2.9691973	argue	-0.037148416
-2.4721634	we	-0.07776309
-2.4721634	should	-0.12674741
-2.9691973	stop	-0.037148416
-2.9691973	investing	-0.037148416
-2.7895873	energy	-0.037148416
-2.7895873	security	-0.037148416
-2.855287	reasons	-0.037148416
-2.9691973	As	-0.037148416
-2.9691973	mentioned	-0.037148416
-2.9691973	before	-0.037148416
-2.9691973	database	-0.037148416
-2.9691973	highly	-0.037148416
-2.9691973	very	-0.037148416
-2.9691973	hackers	-0.037148416
-2.9691973	attack	-0.037148416
-2.9691973	Based	-0.037148416
-2.2907424	on	-0.27545434
-2.9691973	observation	-0.037148416
-2.855287	cowpox	-0.037148416
-2.855287	prevents	-0.037148416
-2.855287	smallpox	-0.037148416
-2.9691973	Jenner	-0.037148416
-2.9691973	began	-0.037148416
-2.9691973	researching	-0.037148416
-2.9691973	into	-0.037148416
-2.9691973	using	-0.037148416
-2.9691973	build	-0.037148416
-2.9691973	immunity	-0.037148416
-2.855287	against	-0.037148416
-2.9691973	By	-0.037148416
-2.9691973	linking	-0.037148416
-2.855287	up	-0.037148416
-2.7895873	acute	-0.037148416
-2.9691973	hospitals	-0.037148416
-2.9691973	community	-0.037148416
-2.9691973	appropriate	-0.037148416
-2.855287	care	-0.037148416
-2.4721634	can	-0.0657662
-2.7895873	given	-0.037148416
-2.9691973	reduces	-0.037148416
-2.855287	expenditure	-0.037148416
-2.9691973	releases	-0.037148416
-2.9691973	beds	-0.037148416
-2.9691973	hospital	-0.037148416
-2.855287	cases	-0.037148416
-2.9691973	An	-0.037148416
-2.9691973	opinion	-0.037148416
-2.9691973	poll	-0.037148416
-2.9691973	conducted	-0.037148416
-2.9691973	among	-0.037148416
-2.9691973	Americans	-0.037148416
-2.9691973	Europeans	-0.037148416
-2.4721634	has	-0.037148416
-2.9691973	shown	-0.037148416
-2.9691973	75	-0.037148416
-2.7895873	%	-0.19873866
-2.9691973	respondents	-0.037148416
-2.6024983	``	-0.037148416
-2.9691973	want	-0.037148416
-2.6024983	not	-0.037148416
-2.855287	less	-0.037148416
-2.9691973	surveillance	-0.037148416
-2.855287	''	-0.037148416
-2.9691973	BBC	-0.037148416
-2.9691973	News	-0.037148416
-2.9691973	2007	-0.037148416
-2.9691973	Furthermore	-0.037148416
-2.855287	If	-0.037148416
-2.9691973	criminal	-0.037148416
-2.9691973	behaviour	-0.037148416
-2.6024983	or	-0.037148416
-2.9691973	improves	-0.037148416
-2.7895873	its	-0.037148416
-2.9691973	detection	-0.037148416
-2.9691973	I	-0.037148416
-2.9691973	'm	-0.037148416
-2.7895873	all	-0.037148416
-2.9691973	These	-0.037148416
-2.9691973	preventive	-0.037148416
-2.9691973	acts	-0.037148416
-2.9691973	prevent	-0.037148416
-2.9691973	occurrence	-0.037148416
-2.9691973	disaster	-0.037148416
-2.9691973	our	-0.037148416
-2.9691973	brains	-0.037148416
-2.7895873	need	-0.037148416
-2.9691973	constant	-0.037148416
-2.9691973	stimulations	-0.037148416
-2.9691973	remain	-0.037148416
-2.9691973	active	-0.037148416
-2.9691973	21st	-0.037148416
-2.9691973	century	-0.037148416
-2.855287	present	-0.037148416
-2.9691973	competitive	-0.037148416
-2.9691973	challenging	-0.037148416
-2.9691973	opportunity	-0.037148416
-2.9691973	develop	-0.037148416
-2.9691973	Therefore	-0.037148416
-2.3720477	public	-0.11047104
-2.9691973	spending	-0.037148416
-2.9691973	aged	-0.037148416
-2.9691973	limited	-0.037148416
-2.163163	as	-0.08251955
-2.9691973	let	-0.037148416
-2.7895873	other	-0.037148416
-2.3720477	areas	-0.11047104
-2.855287	's	-0.037148416
-2.7895873	development	-0.0885393
-2.855287	advance	-0.037148416
-2.3720477	which	-0.0657662
-2.9691973	result	-0.037148416
-2.855287	an	-0.037148416
-2.9691973	improved	-0.037148416
-2.7895873	economy	-0.037148416
-2.9691973	spite	-0.037148416
-2.9691973	growing	-0.037148416
-2.9691973	Supercritical-Water-cooled	-0.037148416
-2.9691973	Reactor	-0.037148416
-2.9691973	SCWR	-0.037148416
-2.9691973	representing	-0.037148416
-2.9691973	advances	-0.037148416
-2.9691973	sustainability	-0.037148416
-2.9691973	economics	-0.037148416
-2.855287	safety	-0.037148416
-2.9691973	reliability	-0.037148416
-2.9691973	proliferation-resistance	-0.037148416
-2.9691973	Idaho	-0.037148416
-2.9691973	National	-0.037148416
-2.9691973	Laboratory	-0.037148416
-2.9691973	proper	-0.037148416
-2.9691973	concept	-0.037148416
-2.855287	further	-0.037148416
-2.7895873	research	-0.107116014
-2.9691973	Town	-0.037148416
-2.9691973	Councils	-0.037148416
-2.855287	also	-0.037148416
-2.855287	came	-0.037148416
-2.9691973	barrier-free	-0.037148416
-2.9691973	features	-0.037148416
-2.855287	like	-0.037148416
-2.9691973	ramps	-0.037148416
-2.9691973	leading	-0.037148416
-2.855287	blocks	-0.037148416
-2.9691973	outdoor	-0.037148416
-2.9691973	facilities	-0.037148416
-2.9691973	provided	-0.037148416
-2.9691973	facilitate	-0.037148416
-2.9691973	mobility	-0.037148416
-2.9691973	seniors	-0.037148416
-2.7895873	from	-0.037148416
-2.9691973	homes	-0.037148416
-2.9691973	vaccine	-0.037148416
-2.9691973	showed	-0.037148416
-2.9691973	[	-0.037148416
-2.9691973	13	-0.037148416
-2.9691973	]	-0.037148416
-2.9691973	One	-0.037148416
-2.9691973	patient	-0.037148416
-2.855287	was	-0.037148416
-2.855287	seen	-0.037148416
-2.855287	his	-0.037148416
-2.9691973	ur	-0.037148416
-2.9691973	disappear	-0.037148416
-2.9691973	gone	-0.037148416
-2.9691973	lly	-0.037148416
-2.9691973	..	-0.037148416
-2.9691973	Just	-0.037148416
-2.9691973	imagine	-0.037148416
-2.7895873	if	-0.037148416
-2.9691973	parents	-0.037148416
-2.9691973	cancer	-0.037148416
-2.4721634	they	-0.107116014
-2.9691973	go	-0.037148416
-2.9691973	surgical	-0.037148416
-2.9691973	operation	-0.037148416
-2.855287	cost	-0.037148416
-2.9691973	younger	-0.037148416
-2.9691973	generation	-0.037148416
-2.9691973	thousands	-0.037148416
-2.9691973	dollars	-0.037148416
-2.9691973	concerns	-0.037148416
-2.9691973	pushed	-0.037148416
-2.9691973	technology	-0.037148416
-2.9691973	forward	-0.037148416
-2.9691973	thus	-0.037148416
-2.9691973	eventually	-0.037148416
-2.9691973	bar	-0.037148416
-2.9691973	code	-0.037148416
-2.855287	use	-0.037148416
-2.9691973	nowadays	-0.037148416
-2.9691973	Measures	-0.037148416
-2.855287	government	-0.037148416
-2.855287	help	-0.037148416
-2.855287	ease	-0.037148416
-2.9691973	aging	-0.037148416
-2.855287	process	-0.037148416
-2.855287	residential	-0.037148416
-2.9691973	sheltered	-0.037148416
-2.9691973	linkways	-0.037148416
-2.9691973	upgraded	-0.037148416
-2.9691973	allow	-0.037148416
-2.9691973	access	-0.037148416
-2.9691973	markets	-0.037148416
-2.9691973	At	-0.037148416
-2.9691973	time	-0.037148416
-2.9691973	must	-0.037148416
-2.9691973	easy	-0.037148416
-2.9691973	get	-0.037148416
-2.9691973	clean	-0.037148416
-2.9691973	;	-0.037148416
-2.9691973	sacrifice	-0.037148416
-2.9691973	any	-0.037148416
-2.9691973	To	-0.037148416
-2.9691973	deal	-0.037148416
-2.9691973	limitation	-0.037148416
-2.855287	budget	-0.037148416
-2.9691973	amount	-0.037148416
-2.9691973	set	-0.037148416
-2.9691973	aside	-0.037148416
-2.9691973	enough	-0.037148416
-2.9691973	funds	-0.037148416
-2.855287	used	-0.037148416
-2.9691973	building	-0.037148416
-2.9691973	developing	-0.037148416
-2.855287	infrastructure	-0.037148416
-2.9691973	creating	-0.037148416
-2.9691973	employment	-0.037148416
-2.855287	opportunities	-0.1468379
-2.9691973	improving	-0.037148416
-2.9691973	standard	-0.037148416
-2.9691973	living	-0.037148416
-2.7895873	benefit	-0.107116014
-2.9691973	nation	-0.037148416
-2.855287	well	-0.037148416
-2.9691973	increase	-0.037148416
-2.9691973	GDP	-0.037148416
-2.9691973	There	-0.037148416
-2.9691973	recently	-0.037148416
-2.855287	ageing	-0.107116014
-2.9691973	population	-0.037148416
-2.9691973	feel	-0.037148416
-2.9691973	strongly	-0.037148416
-2.855287	about	-0.037148416
-2.9691973	Moreover	-0.037148416
-2.9691973	reprocessing	-0.037148416
-2.9691973	cut	-0.037148416
-2.9691973	off	-0.037148416
-2.9691973	96	-0.037148416
-2.9691973	waste	-0.037148416
-2.9691973	produced	-0.037148416
-2.9691973	consists	-0.037148416
-2.9691973	plutonium	-0.037148416
-2.9691973	uranium	-0.037148416
-2.855287	only	-0.037148416
-2.855287	1	-0.037148416
-2.9691973	long	-0.037148416
-2.9691973	lasting	-0.037148416
-2.9691973	elements	-0.037148416
-2.9691973	left	-0.037148416
-2.9691973	residue	-0.037148416
-2.9691973	Elderly	-0.037148416
-2.9691973	subsidy	-0.037148416
-2.855287	$	-0.037148416
-2.9691973	360	-0.037148416
-2.9691973	annually	-0.037148416
-2.9691973	chronic	-0.037148416
-2.9691973	diseases	-0.037148416
-2.9691973	diabetes	-0.037148416
-2.9691973	hypertension	-0.037148416
-2.9691973	high	-0.037148416
-2.9691973	cholesterol	-0.037148416
-2.9691973	terms	-0.037148416
-2.9691973	coolant	-0.037148416
-2.7895873	lead	-0.107116014
-2.855287	costs	-0.1468379
-2.855287	around	-0.037148416
-2.9691973	US	-0.037148416
-2.9691973	0.24	-0.037148416
-2.855287	per	-0.1468379
-2.9691973	100	-0.037148416
-2.9691973	grams	-0.037148416
-2.9691973	MetalPrice.com	-0.037148416
-2.9691973	while	-0.037148416
-2.9691973	helium	-0.037148416
-2.9691973	5.20	-0.037148416
-2.9691973	Community	-0.037148416
-2.855287	Centres	-0.037148416
-2.9691973	Resident	-0.037148416
-2.9691973	Committee	-0.037148416
-2.9691973	built	-0.037148416
-2.9691973	different	-0.037148416
-2.9691973	Singapore	-0.037148416
-2.9691973	provide	-0.037148416
-2.9691973	recreational	-0.037148416
-2.9691973	activities	-0.037148416
-2.9691973	programmes	-0.037148416
-2.9691973	participate	-0.037148416
-2.855287	results	-0.1468379
-2.855287	genetic	-0.1468379
-2.9691973	testing	-0.037148416
-2.6024983	may	-0.037148416
-2.9691973	open	-0.037148416
-2.9691973	doors	-0.037148416
-2.9691973	potential	-0.037148416
-2.855287	discrimination	-0.037148416
-2.9691973	job	-0.037148416
-2.9691973	insurance	-0.037148416
-2.9691973	policies	-0.037148416
-2.9691973	Revealing	-0.037148416
-2.9691973	individual	-0.037148416
-2.9691973	without	-0.037148416
-2.9691973	individuals	-0.037148416
-2.9691973	permission	-0.037148416
-2.9691973	invasion	-0.037148416
-2.9691973	privacy	-0.037148416
-2.9691973	social	-0.037148416
-2.9691973	reactor	-0.037148416
-2.9691973	leak	-0.037148416
-2.9691973	Firstly	-0.037148416
-2.9691973	defined	-0.037148416
-2.9691973	problem	-0.037148416
-2.9691973	invent	-0.037148416
-2.9691973	product	-0.037148416
-2.9691973	could	-0.037148416
-2.9691973	give	-0.037148416
-2.9691973	protection	-0.037148416
-2.9691973	accumulate	-0.037148416
-2.9691973	wealth	-0.037148416
-2.6024983	their	-0.037148416
-2.9691973	work	-0.037148416
-2.855287	then	-0.037148416
-2.9691973	support	-0.037148416
-2.9691973	themselves	-0.037148416
-2.855287	old	-0.037148416
-2.9691973	age	-0.037148416
-2.9691973	essay	-0.037148416
-2.9691973	aims	-0.037148416
-2.9691973	discuss	-0.037148416
-2.9691973	channeling	-0.037148416
-2.9691973	factors	-0.037148416
-2.9691973	boost	-0.037148416
-2.855287	indirectly	-0.037148416
-2.855287	too	-0.037148416
-2.9691973	world	-0.037148416
-2.9691973	resource	-0.037148416
-2.9691973	fossil	-0.037148416
-2.9691973	fuel	-0.037148416
-2.9691973	slowly	-0.037148416
-2.9691973	depleting	-0.037148416
-2.9691973	Secondly	-0.037148416
-2.9691973	regarding	-0.037148416
-2.9691973	implementation	-0.037148416
-2.9691973	military	-0.037148416
-2.9691973	aspects	-0.037148416
-2.9691973	even	-0.037148416
-2.9691973	though	-0.037148416
-2.9691973	adoption	-0.037148416
-2.9691973	immigrant	-0.037148416
-2.855287	policy	-0.037148416
-2.9691973	helped	-0.037148416
-2.855287	might	-0.037148416
-2.9691973	best	-0.037148416
-2.9691973	conquer	-0.037148416
-2.9691973	All	-0.037148416
-2.9691973	VHTR	-0.037148416
-2.9691973	definitely	-0.037148416
-2.9691973	worth	-0.037148416
-2.9691973	money	-0.037148416
-2.9691973	effort	-0.037148416
-2.9691973	regards	-0.037148416
-2.9691973	issue	-0.037148416
-2.9691973	power	-0.037148416
-2.9691973	plants	-0.037148416
-2.9691973	Nuclear	-0.037148416
-2.9691973	Energy	-0.037148416
-2.9691973	Information	-0.037148416
-2.9691973	Centre	-0.037148416
-2.9691973	2006	-0.037148416
-2.9691973	Such	-0.037148416
-2.9691973	short	-0.037148416
-2.9691973	lifespan	-0.037148416
-2.9691973	battery	-0.037148416
-2.9691973	together	-0.037148416
-2.9691973	few	-0.037148416
-2.9691973	patients	-0.037148416
-2.9691973	'	-0.037148416
-2.9691973	death	-0.037148416
-2.9691973	because	-0.037148416
-2.9691973	running	-0.037148416
-2.9691973	out	-0.037148416
-2.9691973	obligatory	-0.037148416
-2.9691973	notify	-0.037148416
-2.855287	relatives	-0.037148416
-2.9691973	early	-0.037148416
-2.9691973	recognition	-0.037148416
-2.9691973	treatment	-0.037148416
-2.9691973	disease	-0.037148416
-2.9691973	interfere	-0.037148416
-2.9691973	educate	-0.037148416
-2.9691973	prejudiced	-0.037148416
-2.9691973	Each	-0.037148416
-2.9691973	factor	-0.037148416
-2.9691973	own	-0.037148416
-2.9691973	way	-0.037148416
-2.9691973	contributing	-0.037148416
-2.9691973	society	-0.037148416
-2.9691973	whole	-0.037148416
-2.9691973	directly	-0.037148416
-2.9691973	developments	-0.037148416
-2.9691973	Not	-0.037148416
-2.9691973	financial	-0.037148416
-2.9691973	these	-0.037148416
-2.9691973	children	-0.037148416
-2.9691973	countries	-0.037148416
-2.9691973	cause	-0.037148416
-2.9691973	proportion	-0.037148416
-2.9691973	spent	-0.037148416
-2.9691973	important	-0.037148416
-2.9691973	such	-0.037148416
-2.9691973	lessened	-0.037148416
-2.9691973	But	-0.037148416
-2.9691973	precisely	-0.037148416
-2.9691973	evaluate	-0.037148416
-2.9691973	impacts	-0.037148416
-2.9691973	GM	-0.037148416
-2.9691973	foods	-0.037148416
-2.9691973	human	-0.037148416
-2.9691973	body	-0.037148416
-2.9691973	verify	-0.037148416
-2.9691973	healthy	-0.037148416
-2.9691973	would	-0.037148416
-2.9691973	accept	-0.037148416
-2.9691973	According	-0.037148416
-2.9691973	United	-0.037148416
-2.9691973	Nations	-0.037148416
-2.9691973	statistics	-0.037148416
-2.9691973	2050	-0.037148416
-2.9691973	one	-0.037148416
-2.9691973	every	-0.037148416
-2.9691973	five	-0.037148416
-2.855287	60	-0.1468379
-2.9691973	years	-0.037148416
-2.9691973	above	-0.037148416
-2.9691973	total	-0.037148416
-2.9691973	number	-0.037148416
-2.9691973	projected	-0.037148416
-2.9691973	2	-0.037148416
-2.9691973	billion	-0.037148416
-2.9691973	A	-0.037148416
-2.855287	carrier	-0.037148416
-2.9691973	tell	-0.037148416
-2.9691973	her	-0.037148416
-2.9691973	at	-0.037148416
-2.9691973	risk	-0.037148416
-2.9691973	getting	-0.037148416
-2.855287	being	-0.037148416
-2.9691973	Lea	-0.037148416
-2.9691973	Williams	-0.037148416
-2.9691973	Donahue	-0.037148416
-2.9691973	2005	-0.037148416
-2.9691973	firstly	-0.037148416
-2.9691973	national	-0.037148416
-2.9691973	essential	-0.037148416
-2.9691973	{	-0.037148416
-2.9691973	Model	-0.037148416
-2.9691973	T	-0.037148416
-2.9691973	}	-0.037148416
-2.9691973	introduced	-0.037148416
-2.9691973	October	-0.037148416
-2.9691973	1908	-0.037148416
-2.9691973	Most	-0.037148416
-2.9691973	students	-0.037148416
-2.9691973	spoon	-0.037148416
-2.9691973	fed	-0.037148416

\2-grams:
-0.06438515	. </s>	0
-1.373951	'' </s>	0
-1.641304	<s> In	-0.034332726
-1.3769981	In addition	-0.040516652
-0.9051897	addition ,	-0.022222942
-1.413287	, ,	-0.022222942
-1.0788	know ,	-0.022222942
-1.0788	reactors ,	-0.022222942
-1.2665818	more ,	-0.022222942
-0.9051897	storage ,	-0.022222942
-0.9051897	forum ,	-0.022222942
-0.9051897	08/06/2006 ,	-0.022222942
-0.9713173	) ,	-0.022222942
-1.0788	education ,	-0.022222942
-0.9051897	teaching ,	-0.022222942
-1.0788	ones ,	-0.022222942
-1.0788	concern ,	-0.022222942
-1.1976945	funding ,	-0.022222942
-1.0788	Thus ,	-0.022222942
-0.9051897	before ,	-0.022222942
-1.0788	smallpox ,	-0.022222942
-1.0788	less ,	-0.022222942
-0.9051897	News ,	-0.022222942
-0.9051897	Furthermore ,	-0.022222942
-1.0788	present ,	-0.022222942
-1.0788	Therefore ,	-0.022222942
-1.2305328	aged ,	-0.022222942
-1.3054808	areas ,	-0.022222942
-0.9051897	sustainability ,	-0.022222942
-0.9051897	economics ,	-0.022222942
-1.0788	safety ,	-0.022222942
-0.9051897	Laboratory ,	-0.022222942
-1.0788	further ,	-0.022222942
-0.9051897	forward ,	-0.022222942
-1.0788	process ,	-0.022222942
-0.9051897	time ,	-0.022222942
-1.0788	infrastructure ,	-0.022222942
-0.9051897	nation ,	-0.022222942
-1.0788	population ,	-0.022222942
-0.9051897	Moreover ,	-0.022222942
-0.9051897	produced ,	-0.022222942
-0.9051897	uranium ,	-0.022222942
-1.0788	1 ,	-0.022222942
-0.9051897	diabetes ,	-0.022222942
-0.9051897	coolant ,	-0.022222942
-0.9051897	Firstly ,	-0.040516652
-1.0788	problem ,	-0.022222942
-0.9051897	work ,	-0.022222942
-0.9051897	resource ,	-0.022222942
-0.9051897	fuel ,	-0.022222942
-0.9051897	Centre ,	-0.022222942
-1.0788	disease ,	-0.022222942
-0.9051897	healthy ,	-0.022222942
-0.9051897	statistics ,	-0.022222942
-0.9051897	2050 ,	-0.022222942
-0.9051897	Lea ,	-0.022222942
-0.9051897	Donahue ,	-0.022222942
-0.9051897	firstly ,	-0.022222942
-2.6424992	, since	-0.022222942
-1.0810963	since terrorists	-0.022222942
-1.0795519	terrorists know	-0.022222942
-1.5435109	all know	-0.022222942
-1.3036171	know that	-0.022222942
-1.8084314	are that	-0.022222942
-1.0424232	improve that	-0.022222942
-1.3036171	hardly that	-0.022222942
-1.534502	so that	-0.022222942
-1.0424232	argue that	-0.022222942
-1.0424232	observation that	-0.022222942
-1.0424232	shown that	-0.022222942
-1.0424232	showed that	-0.022222942
-1.3036171	population that	-0.022222942
-1.0424232	discuss that	-0.022222942
-1.0424232	verify that	-0.022222942
-2.1069455	that there	-0.022222942
-1.0580726	there will	-0.022222942
-1.8798271	it will	-0.022222942
-1.4837338	country will	-0.022222942
-1.7174659	people will	-0.022222942
-1.585062	elderly will	-0.022222942
-1.0598938	which will	-0.022222942
-1.0580726	reprocessing will	-0.022222942
-1.0580726	reactor will	-0.022222942
-0.8950515	will be	-0.022222942
-1.1419389	to be	-0.022222942
-0.6482012	should be	-0.022222942
-1.0598938	can be	-0.022222942
-1.585062	not be	-0.022222942
-1.0580726	must be	-0.022222942
-1.4837338	well be	-0.022222942
-1.3326107	might be	-0.022222942
-2.2168236	be extra	-0.022222942
-1.0795519	give extra	-0.022222942
-1.3769981	extra precautions	-0.022222942
-2.202486	be taken	-0.022222942
-1.078462	precautions taken	-0.022222942
-1.078462	Measures taken	-0.022222942
-1.5104631	, to	-0.022222942
-1.2152694	taken to	-0.022222942
-1.4127814	it to	-0.022222942
-1.127381	them to	-0.022222942
-1.3581644	have to	-0.022222942
-0.9371548	RFID to	-0.022222942
-1.3933973	are to	-0.022222942
-0.9371548	right to	-0.022222942
-0.9371548	benefits to	-0.022222942
-1.2669302	elderly to	-0.022222942
-0.9371548	hackers to	-0.022222942
-1.127381	cowpox to	-0.022222942
-1.2152694	given to	-0.022222942
-1.3011597	has to	-0.022222942
-1.2152694	need to	-0.022222942
-0.9371548	stimulations to	-0.022222942
-0.9371548	opportunity to	-0.022222942
-1.3763955	public to	-0.022222942
-1.2152694	spending to	-0.022222942
-1.0268345	as to	-0.022222942
-0.9371548	leading to	-0.022222942
-1.127381	blocks to	-0.022222942
-0.9371548	provided to	-0.022222942
-0.9371548	homes to	-0.022222942
-1.127381	government to	-0.022222942
-0.9371548	upgraded to	-0.022222942
-0.9371548	easy to	-0.022222942
-0.9371548	aside to	-0.022222942
-0.9371548	funds to	-0.022222942
-1.127381	used to	-0.022222942
-0.9371548	living to	-0.022222942
-0.6578839	lead to	-0.022222942
-0.9371548	Singapore to	-0.022222942
-0.9371548	protection to	-0.022222942
-0.9371548	aims to	-0.022222942
-1.127381	policy to	-0.022222942
-0.9371548	helped to	-0.022222942
-0.9371548	regards to	-0.022222942
-0.9371548	obligatory to	-0.022222942
-0.9371548	interfere to	-0.022222942
-0.9371548	contributing to	-0.022222942
-0.9371548	According to	-0.022222942
-0.9371548	projected to	-0.022222942
-2.5812125	to safeguard	-0.022222942
-1.1598303	, the	-0.022222942
-1.3522952	that the	-0.022222942
-1.3826199	be the	-0.022222942
-1.0021574	to the	-0.029448211
-0.922333	safeguard the	-0.022222942
-1.4632972	the the	-0.022222942
-0.73867095	for the	-0.022222942
-0.922333	sabotage the	-0.022222942
-1.2358505	by the	-0.022222942
-0.56216276	of the	-0.029968962
-0.922333	For the	-0.022222942
-1.320129	have the	-0.022222942
-1.2637212	and the	-0.022222942
-1.1046231	but the	-0.022222942
-1.0543572	is the	-0.022222942
-1.3704249	in the	-0.022222942
-0.88462055	with the	-0.022222942
-0.38782606	on the	-0.028235642
-1.1046231	against the	-0.022222942
-1.1875666	given the	-0.022222942
-0.922333	reduces the	-0.022222942
-0.922333	releases the	-0.022222942
-1.1875666	all the	-0.022222942
-0.922333	prevent the	-0.022222942
-0.922333	let the	-0.022222942
-1.1046231	came the	-0.022222942
-1.1875666	from the	-0.022222942
-1.1046231	seen the	-0.022222942
-1.1875666	if the	-0.022222942
-1.1046231	cost the	-0.022222942
-0.922333	pushed the	-0.022222942
-1.1046231	ease the	-0.022222942
-1.1046231	allow the	-0.022222942
-0.922333	At the	-0.022222942
-0.922333	improving the	-0.022222942
-0.65118897	benefit the	-0.022222942
-0.922333	Revealing the	-0.022222942
-0.922333	defined the	-0.022222942
-0.922333	boost the	-0.022222942
-0.922333	regarding the	-0.022222942
-0.922333	though the	-0.022222942
-0.922333	conquer the	-0.022222942
-0.922333	All the	-0.022222942
-0.922333	worth the	-0.022222942
-0.922333	educate the	-0.022222942
-0.922333	cause the	-0.022222942
-0.922333	evaluate the	-0.022222942
-0.922333	getting the	-0.022222942
-2.0471745	the nuclear	-0.034332726
-2.5091505	of nuclear	-0.022222942
-2.1109595	in nuclear	-0.022222942
-1.6679497	nuclear reactors	-0.022222942
-1.2449305	, it	-0.022222942
-2.0354786	for it	-0.022222942
-1.3478673	Thus it	-0.022222942
-1.3478673	If it	-0.022222942
-1.3478673	Therefore it	-0.022222942
-1.3478673	use it	-0.022222942
-2.0269125	be more	-0.022222942
-2.279191	the more	-0.022222942
-2.004046	for more	-0.022222942
-2.637513	. more	-0.022222942
-1.915318	a more	-0.022222942
-1.0620745	any more	-0.022222942
-1.0620745	accumulate more	-0.022222942
-1.8863025	more difficult	-0.022222942
-1.0795519	very difficult	-0.022222942
-0.5321719	difficult for	-0.022222942
-1.0424232	goes for	-0.022222942
-0.7018678	funding for	-0.022222942
-1.4432212	energy for	-0.022222942
-1.0424232	hospital for	-0.022222942
-1.4432212	all for	-0.022222942
-1.4432212	spending for	-0.022222942
-1.0424232	concept for	-0.022222942
-1.3036171	used for	-0.022222942
-1.0424232	annually for	-0.022222942
-1.0424232	programmes for	-0.022222942
-1.0424232	doors for	-0.022222942
-2.1573875	for them	-0.022222942
-1.0795519	accept them	-0.022222942
-2.5812125	to sabotage	-0.022222942
-2.056244	the country	-0.034332726
-2.0587928	a country	-0.022222942
-2.4654489	, by	-0.022222942
-1.528418	taken by	-0.022222942
-1.528418	country by	-0.022222942
-2.4333336	of by	-0.022222942
-1.6679497	by means	-0.022222942
-1.5859658	, of	-0.022222942
-0.9587939	means of	-0.022222942
-1.1613891	issues of	-0.022222942
-0.5105911	quality of	-0.022222942
-0.9587939	difficulty of	-0.022222942
-1.1613891	care of	-0.022222942
-1.1613891	cases of	-0.022222942
-0.41286355	% of	-0.034332726
-0.9587939	occurrence of	-0.022222942
-0.68354744	areas of	-0.034332726
-1.343468	development of	-0.022222942
-0.9587939	spite of	-0.022222942
-0.9587939	mobility of	-0.022222942
-1.1613891	cost of	-0.022222942
-0.9587939	thousands of	-0.022222942
-0.9587939	limitation of	-0.022222942
-0.9587939	standard of	-0.022222942
-0.9587939	consists of	-0.022222942
-0.9587939	subsidy of	-0.022222942
-0.9587939	terms of	-0.022222942
-0.5105911	results of	-0.022222942
-0.9587939	invasion of	-0.022222942
-0.9587939	factors of	-0.022222942
-0.9587939	adoption of	-0.022222942
-0.9587939	issue of	-0.022222942
-0.9587939	lifespan of	-0.022222942
-0.9587939	because of	-0.022222942
-0.9587939	out of	-0.022222942
-0.9587939	treatment of	-0.022222942
-0.9587939	way of	-0.022222942
-0.9587939	proportion of	-0.022222942
-0.9587939	impacts of	-0.022222942
-0.9587939	one of	-0.022222942
-0.9587939	number of	-0.022222942
-0.9587939	risk of	-0.022222942
-0.9587939	Most of	-0.022222942
-1.1002113	reactors .	-0.022222942
-1.3663079	it .	-0.022222942
-1.3000305	more .	-0.022222942
-1.1002113	them .	-0.022222942
-1.1002113	done .	-0.022222942
-1.1002113	tools .	-0.022222942
-1.1002113	issues .	-0.022222942
-0.77085835	) .	-0.034332726
-0.9194284	low .	-0.022222942
-1.1002113	concern .	-0.022222942
-1.2298927	elderly .	-0.034332726
-1.3625989	in .	-0.022222942
-0.9194284	industries .	-0.022222942
-1.1002113	reasons .	-0.022222942
-0.9194284	highly .	-0.022222942
-0.9194284	attack .	-0.022222942
-1.1002113	smallpox .	-0.022222942
-1.1002113	cases .	-0.022222942
-0.9194284	disaster .	-0.022222942
-0.9194284	active .	-0.022222942
-0.9194284	develop .	-0.022222942
-1.2612207	aged .	-0.022222942
-1.336288	areas .	-0.022222942
-0.75065917	development .	-0.040516652
-1.1002113	advance .	-0.022222942
-1.1822319	economy .	-0.022222942
-0.9194284	.. .	-0.022222942
-0.9194284	dollars .	-0.022222942
-0.9194284	nowadays .	-0.022222942
-0.9194284	markets .	-0.022222942
-1.1822319	well .	-0.022222942
-0.9194284	GDP .	-0.022222942
-1.1002113	about .	-0.022222942
-0.9194284	residue .	-0.022222942
-0.9194284	cholesterol .	-0.022222942
-1.1002113	grams .	-0.022222942
-1.1002113	discrimination .	-0.022222942
-0.9194284	policies .	-0.022222942
-0.9194284	leak .	-0.022222942
-1.1002113	problem .	-0.022222942
-0.9194284	age .	-0.022222942
-1.1002113	too .	-0.022222942
-0.9194284	depleting .	-0.022222942
-0.9194284	aspects .	-0.022222942
-0.9194284	children .	-0.022222942
-0.9194284	lessened .	-0.022222942
-0.9194284	billion .	-0.022222942
-0.9194284	1908 .	-0.022222942
-0.9194284	fed .	-0.022222942
-2.6113355	<s> For	-0.022222942
-2.706344	the compressed	-0.022222942
-1.0810963	compressed hydrogen	-0.022222942
-1.0810963	hydrogen storage	-0.022222942
-2.5956943	, many	-0.022222942
-1.0795519	raises many	-0.022222942
-1.3769981	many numerical	-0.022222942
-1.0810963	numerical modeling	-0.022222942
-1.0661138	modeling have	-0.022222942
-1.5055014	who have	-0.022222942
-1.0661138	parents have	-0.022222942
-1.0046077	they have	-0.022222942
-1.0661138	There have	-0.022222942
-1.3478673	Centres have	-0.022222942
-1.930409	have been	-0.022222942
-1.3718067	also been	-0.022222942
-1.078462	recently been	-0.022222942
-2.2168236	be done	-0.022222942
-1.5435109	been done	-0.022222942
-1.3718067	done through	-0.022222942
-1.078462	go through	-0.022222942
-1.078462	wealth through	-0.022222942
-1.548021	through computational	-0.022222942
-1.0810963	computational fluid	-0.022222942
-1.0810963	fluid dynamics	-0.022222942
-1.0795519	dynamics tools	-0.022222942
-1.0795519	serving tools	-0.022222942
-2.6113355	<s> Using	-0.022222942
-1.0810963	Using RFID	-0.022222942
-2.5812125	to track	-0.022222942
-2.3159075	, people	-0.022222942
-1.9694235	that people	-0.022222942
-2.3126373	of people	-0.022222942
-1.0661138	track people	-0.022222942
-1.0661138	these people	-0.022222942
-1.0661138	five people	-0.022222942
-1.8341913	people raises	-0.022222942
-1.373951	many issues	-0.022222942
-1.5435109	some issues	-0.022222942
-2.260343	<s> (	-0.022222942
-1.340172	'' (	-0.022222942
-1.0620745	Reactor (	-0.022222942
-1.0620745	proliferation-resistance (	-0.022222942
-1.340172	grams (	-0.022222942
-1.340172	too (	-0.022222942
-1.0620745	plants (	-0.022222942
-1.8962957	( MYE	-0.022222942
-1.0810963	MYE forum	-0.022222942
-2.6424992	, 08/06/2006	-0.022222942
-2.6424992	, para.1	-0.022222942
-1.0620745	para.1 )	-0.022222942
-1.0620745	want )	-0.022222942
-1.0620745	2007 )	-0.022222942
-1.0620745	SCWR )	-0.022222942
-1.0620745	MetalPrice.com )	-0.022222942
-1.0620745	2006 )	-0.022222942
-1.0620745	2005 )	-0.022222942
-1.956114	) .The	-0.022222942
-2.6520426	the quality	-0.022222942
-1.0795519	.The quality	-0.022222942
-2.5646584	of infra-structure	-0.022222942
-1.5407149	, and	-0.022222942
-0.984921	infra-structure and	-0.022222942
-0.984921	change and	-0.022222942
-1.3108783	security and	-0.022222942
-1.203825	expenditure and	-0.022222942
-0.984921	Americans and	-0.022222942
-0.984921	competitive and	-0.022222942
-1.3108783	economy and	-0.022222942
-0.984921	reliability and	-0.022222942
-0.67861104	research and	-0.022222942
-1.203825	blocks and	-0.022222942
-0.984921	cancer and	-0.022222942
-0.984921	get and	-0.022222942
-0.984921	building and	-0.022222942
-1.203825	infrastructure and	-0.022222942
-0.5176662	opportunities and	-0.022222942
-0.984921	plutonium and	-0.022222942
-0.984921	hypertension and	-0.022222942
-1.203825	Centres and	-0.022222942
-0.984921	activities and	-0.022222942
-0.984921	privacy and	-0.040516652
-1.203825	old and	-0.022222942
-0.984921	money and	-0.022222942
-0.984921	recognition and	-0.022222942
-0.984921	whole and	-0.022222942
-0.984921	body and	-0.022222942
-1.203825	above and	-0.022222942
-0.984921	Williams and	-0.022222942
-1.7110499	and education	-0.022222942
-1.3769981	education serving	-0.022222942
-1.3036171	tools are	-0.022222942
-1.4432212	who are	-0.022222942
-1.3036171	China are	-0.022222942
-1.6773155	areas are	-0.022222942
-1.7018362	which are	-0.022222942
-1.0424232	facilities are	-0.022222942
-1.6761382	they are	-0.022222942
-1.0424232	elements are	-0.022222942
-1.0424232	Elderly are	-0.022222942
-1.0424232	VHTR are	-0.022222942
-1.0424232	countries are	-0.022222942
-1.0424232	students are	-0.022222942
-2.1069455	that low	-0.022222942
-0.98681635	<s> The	-0.022222942
-2.7397592	. The	-0.022222942
-2.6520426	the same	-0.022222942
-1.9382199	The same	-0.022222942
-1.3769981	same goes	-0.022222942
-2.5646584	of teaching	-0.022222942
-2.5956943	, but	-0.022222942
-1.5435109	economy but	-0.022222942
-2.6520426	the main	-0.022222942
-1.373951	's main	-0.022222942
-1.3769981	main point	-0.022222942
-1.0810963	point here	-0.022222942
-1.8534275	, is	-0.022222942
-0.9414818	it is	-0.022222942
-1.0620745	here is	-0.022222942
-1.0620745	database is	-0.022222942
-1.7928509	which is	-0.022222942
-1.0620745	Secondly is	-0.022222942
-1.340172	above is	-0.022222942
-2.6520426	the ones	-0.022222942
-1.0795519	community ones	-0.022222942
-1.8194785	people who	-0.022222942
-1.3718067	ones who	-0.022222942
-1.078462	patient who	-0.022222942
-2.706344	the right	-0.022222942
-2.5812125	to change	-0.022222942
-2.445211	and improve	-0.022222942
-2.1069455	that entire	-0.022222942
-1.0810963	entire thing	-0.022222942
-2.0613856	is hardly	-0.022222942
-1.0795519	thing hardly	-0.022222942
-1.3769981	hardly taking	-0.022222942
-2.1165328	, a	-0.022222942
-2.105369	to a	-0.022222942
-1.7161299	of a	-0.022222942
-1.4630053	through a	-0.022222942
-1.0501773	taking a	-0.022222942
-1.317872	China a	-0.022222942
-1.4630053	given a	-0.022222942
-1.8093468	as a	-0.022222942
-1.0501773	invent a	-0.022222942
-1.317872	being a	-0.022222942
-2.0587928	a concern	-0.022222942
-1.0795519	growing concern	-0.022222942
-1.9022233	<s> This	-0.022222942
-2.7397592	. This	-0.022222942
-1.548021	This does	-0.022222942
-1.0810963	does bring	-0.022222942
-1.5403463	been some	-0.022222942
-1.078462	bring some	-0.022222942
-1.8226677	with some	-0.022222942
-1.548021	some benefits	-0.017593922
-1.2552257	the elderly	-0.022222942
-2.6113355	<s> Developing	-0.022222942
-1.0810963	Developing new	-0.022222942
-1.0810963	new inventions	-0.022222942
-1.0810963	inventions requires	-0.022222942
-1.0810963	requires substantial	-0.022222942
-2.3903584	and funding	-0.022222942
-1.078462	substantial funding	-0.022222942
-1.078462	insufficient funding	-0.022222942
-2.4654489	, so	-0.022222942
-2.039791	are so	-0.022222942
-1.0743068	limited so	-0.022222942
-1.3636794	relatives so	-0.022222942
-1.6679497	so engineers	-0.022222942
-2.010648	, in	-0.022222942
-1.0385975	engineers in	-0.022222942
-1.0385975	investing in	-0.022222942
-1.4336572	energy in	-0.022222942
-1.0385975	beds in	-0.022222942
-1.0385975	result in	-0.022222942
-1.0385975	advances in	-0.022222942
-1.2966614	process in	-0.022222942
-1.0385975	built in	-0.022222942
-1.0385975	participate in	-0.022222942
-1.2966614	discrimination in	-0.022222942
-1.0385975	themselves in	-0.022222942
-1.0385975	implementation in	-0.022222942
-2.1224384	in China	-0.022222942
-1.373951	present China	-0.022222942
-2.1069455	are faced	-0.022222942
-1.0661138	faced with	-0.022222942
-1.3478673	up with	-0.022222942
-1.0661138	hospitals with	-0.022222942
-1.0661138	deal with	-0.022222942
-1.0661138	effort with	-0.022222942
-1.0661138	together with	-0.022222942
-2.706344	the difficulty	-0.022222942
-2.5646584	of insufficient	-0.022222942
-2.1735826	for innovating	-0.022222942
-1.0810963	innovating industries	0
-1.6367232	<s> Thus	-0.022222942
-2.7397592	. Thus	-0.022222942
-2.6424992	, opponents	-0.022222942
-1.0810963	opponents argue	-0.022222942
-2.0031836	that we	-0.022222942
-1.3557014	As we	-0.022222942
-1.5168086	if we	-0.022222942
-1.070191	code we	-0.022222942
-1.070191	; we	-0.022222942
-1.7163575	we should	-0.022222942
-1.7101563	aged should	-0.022222942
-1.3557014	budget should	-0.022222942
-1.070191	amount should	-0.022222942
-1.3557014	carrier should	-0.022222942
-1.7645217	should stop	-0.022222942
-1.0810963	stop investing	-0.022222942
-1.6578624	nuclear energy	-0.022222942
-2.5091505	of energy	-0.022222942
-1.3718067	main energy	-0.022222942
-2.6173334	the security	-0.022222942
-2.1462774	for security	-0.022222942
-2.1109595	in security	-0.022222942
-1.5435109	security reasons	-0.022222942
-1.6620151	other reasons	-0.022222942
-1.9107032	<s> As	-0.022222942
-1.3769981	As mentioned	-0.022222942
-1.0810963	mentioned before	-0.022222942
-2.706344	the database	-0.022222942
-2.0758066	is highly	-0.022222942
-2.0758066	is very	-0.022222942
-2.1735826	for hackers	-0.022222942
-2.5812125	to attack	-0.022222942
-2.6113355	<s> Based	-0.022222942
-1.0620745	Based on	-0.022222942
-1.340172	expenditure on	-0.040516652
-1.4944812	spending on	-0.022222942
-1.5040699	research on	-0.022222942
-1.0620745	spent on	-0.022222942
-1.0620745	foods on	-0.022222942
-1.0620745	introduced on	-0.022222942
-2.706344	the observation	-0.022222942
-2.0908287	that cowpox	-0.022222942
-1.0795519	using cowpox	-0.022222942
-1.373951	cowpox prevents	-0.022222942
-1.6620151	`` prevents	-0.022222942
-1.373951	prevents smallpox	-0.022222942
-1.373951	against smallpox	-0.022222942
-2.6424992	, Jenner	-0.022222942
-1.0810963	Jenner began	-0.022222942
-1.0810963	began researching	-0.022222942
-1.0810963	researching into	-0.022222942
-1.0810963	into using	-0.022222942
-2.5812125	to build	-0.022222942
-1.0810963	build immunity	-0.022222942
-1.0795519	immunity against	-0.022222942
-1.0795519	prejudiced against	-0.022222942
-2.6113355	<s> By	-0.022222942
-1.0810963	By linking	-0.022222942
-1.0795519	linking up	-0.022222942
-1.373951	came up	-0.022222942
-2.6173334	the acute	-0.022222942
-1.8793647	more acute	-0.022222942
-1.3718067	up acute	-0.022222942
-1.548021	acute hospitals	-0.022222942
-1.8363705	with community	-0.022222942
-2.6424992	, appropriate	-0.022222942
-1.5435109	taken care	-0.022222942
-1.0795519	appropriate care	-0.022222942
-2.3842733	, can	-0.022222942
-0.92969906	we can	-0.022222942
-1.3557014	care can	-0.022222942
-1.070191	acts can	-0.022222942
-1.0076163	they can	-0.022222942
-2.202486	be given	-0.022222942
-2.0797706	are given	-0.022222942
-1.3718067	was given	-0.022222942
-1.548021	This reduces	-0.022222942
-2.6520426	the expenditure	-0.022222942
-1.8313385	public expenditure	-0.022222942
-2.445211	and releases	-0.022222942
-2.706344	the beds	-0.022222942
-1.548021	acute hospital	-0.022222942
-1.5435109	acute cases	-0.022222942
-1.0795519	few cases	-0.022222942
-2.6113355	<s> An	-0.022222942
-1.0810963	An opinion	-0.022222942
-1.0810963	opinion poll	-0.022222942
-1.0810963	poll conducted	-0.022222942
-1.0810963	conducted among	-0.022222942
-1.0810963	among Americans	-0.022222942
-2.445211	and Europeans	-0.022222942
-1.070191	Europeans has	-0.022222942
-1.3557014	vaccine has	-0.022222942
-1.3557014	then has	-0.022222942
-1.3557014	policy has	-0.022222942
-1.070191	factor has	-0.022222942
-1.759907	has shown	-0.022222942
-2.1069455	that 75	-0.022222942
-1.078462	75 %	-0.022222942
-1.078462	96 %	-0.022222942
-1.3718067	1 %	-0.022222942
-2.706344	the respondents	-0.022222942
-2.4654489	, ``	-0.022222942
-2.039791	that ``	-0.022222942
-1.9881275	it ``	-0.022222942
-1.0743068	respondents ``	-0.022222942
-1.6679497	`` want	-0.022222942
-2.4654489	, not	-0.022222942
-1.9521683	will not	-0.022222942
-1.8582957	can not	-0.022222942
-1.3636794	might not	-0.022222942
-2.2168236	be less	-0.022222942
-1.6620151	not less	-0.022222942
-2.6424992	, surveillance	-0.022222942
-2.7397592	. ''	-0.022222942
-1.0795519	surveillance ''	-0.022222942
-1.8962957	( BBC	-0.022222942
-1.0810963	BBC News	-0.040516652
-1.9683211	, 2007	-0.022222942
-1.956114	) Furthermore	-0.022222942
-2.5703516	<s> If	-0.022222942
-1.6620151	`` If	-0.022222942
-1.3769981	prevents criminal	-0.022222942
-1.0810963	criminal behaviour	-0.022222942
-1.0743068	behaviour or	-0.022222942
-1.3636794	his or	-0.022222942
-1.3636794	disease or	-0.022222942
-1.0743068	directly or	-0.022222942
-1.6679497	or improves	-0.022222942
-1.7474746	has its	-0.022222942
-1.078462	improves its	-0.022222942
-1.3718067	increase its	-0.022222942
-1.548021	its detection	-0.022222942
-1.0810963	detection I	-0.022222942
-1.0810963	I 'm	-0.022222942
-1.7507172	we all	-0.022222942
-1.078462	'm all	-0.022222942
-1.078462	Not all	-0.022222942
-1.9107032	<s> These	-0.022222942
-1.3769981	These preventive	-0.022222942
-1.0810963	preventive acts	-0.022222942
-1.8984506	can prevent	-0.022222942
-2.706344	the occurrence	-0.022222942
-2.0737436	a disaster	-0.022222942
-2.6424992	, our	-0.022222942
-1.0810963	our brains	-0.022222942
-2.6173334	the need	-0.022222942
-1.078462	brains need	-0.022222942
-1.7474746	aged need	-0.022222942
-1.548021	need constant	-0.022222942
-1.0810963	constant stimulations	-0.022222942
-2.5812125	to remain	-0.022222942
-1.0810963	remain active	-0.022222942
-1.9494988	The 21st	-0.022222942
-1.0810963	21st century	-0.022222942
-1.0795519	century present	-0.022222942
-1.5435109	if present	-0.022222942
-1.8962957	more competitive	-0.022222942
-2.445211	and challenging	-0.022222942
-1.0810963	challenging opportunity	-0.022222942
-2.5812125	to develop	-0.022222942
-1.9107032	<s> Therefore	-0.022222942
-2.3159075	, public	-0.022222942
-2.2918062	to public	-0.022222942
-2.3422945	the public	-0.040516652
-1.7730708	of public	-0.022222942
-1.6127356	their public	-0.022222942
-1.0661138	channeling public	-0.031273484
-0.734154	public spending	-0.022222942
-1.5391791	the aged	-0.022222942
-2.2379189	be limited	-0.022222942
-2.158463	, as	-0.022222942
-1.5718596	so as	-0.022222942
-1.3251789	help as	-0.022222942
-1.4732459	well as	-0.022222942
-1.054107	left as	-0.022222942
-1.3251789	relatives as	-0.022222942
-1.054107	society as	-0.022222942
-1.054107	developments as	-0.022222942
-1.054107	such as	-0.022222942
-2.5812125	to let	-0.022222942
-2.6173334	the other	-0.022222942
-1.5403463	some other	-0.022222942
-1.1391762	on other	-0.022222942
-1.7706845	public areas	-0.022222942
-1.6127356	other areas	-0.022222942
-1.3478673	residential areas	-0.022222942
-1.0661138	different areas	-0.022222942
-1.0661138	important areas	-0.022222942
-1.0661138	essential areas	-0.040516652
-1.5435109	country 's	-0.022222942
-1.0795519	world 's	-0.022222942
-2.5091505	of development	-0.022222942
-2.3903584	and development	-0.022222942
-1.3718067	's development	-0.022222942
-2.1224384	in advance	-0.022222942
-1.6648756	development advance	-0.034332726
-1.6495264	, which	-0.022222942
-2.3126373	of which	-0.022222942
-1.3478673	advance which	-0.022222942
-1.0661138	operation which	-0.022222942
-1.0661138	linkways which	-0.022222942
-1.0661138	product which	-0.022222942
-2.000328	will result	-0.022222942
-2.1224384	in an	-0.022222942
-1.0795519	without an	-0.022222942
-1.3769981	an improved	-0.022222942
-2.6173334	the economy	-0.022222942
-1.5403463	its economy	-0.022222942
-1.078462	improved economy	-0.022222942
-1.3769981	In spite	-0.022222942
-2.706344	the growing	-0.022222942
-2.706344	the Supercritical-Water-cooled	-0.022222942
-1.0810963	Supercritical-Water-cooled Reactor	-0.022222942
-1.8962957	( SCWR	-0.022222942
-2.6424992	, representing	-0.022222942
-1.0810963	representing advances	-0.022222942
-2.139189	in sustainability	-0.022222942
-2.6424992	, economics	-0.022222942
-2.5956943	, safety	-0.022222942
-1.373951	extra safety	-0.022222942
-2.6424992	, reliability	-0.022222942
-2.445211	and proliferation-resistance	-0.022222942
-1.8962957	( Idaho	-0.022222942
-1.0810963	Idaho National	-0.022222942
-1.0810963	National Laboratory	-0.022222942
-2.706344	the proper	-0.022222942
-1.0810963	proper concept	-0.022222942
-2.1573875	for further	-0.022222942
-1.7525846	aged further	-0.022222942
-2.6173334	the research	-0.022222942
-1.930409	The research	-0.022222942
-1.3718067	further research	-0.022222942
-2.6113355	<s> Town	-0.022222942
-1.0810963	Town Councils	-0.022222942
-1.9382199	have also	-0.022222942
-1.0795519	Councils also	-0.022222942
-1.373951	also came	-0.022222942
-1.0795519	eventually came	-0.022222942
-1.8363705	with barrier-free	-0.022222942
-1.0810963	barrier-free features	-0.022222942
-1.0795519	features like	-0.022222942
-1.0795519	diseases like	-0.022222942
-1.3769981	like ramps	-0.022222942
-1.0810963	ramps leading	-0.022222942
-2.5413513	to blocks	-0.022222942
-1.373951	residential blocks	-0.022222942
-2.445211	and outdoor	-0.022222942
-1.0810963	outdoor facilities	-0.022222942
-2.1069455	are provided	-0.022222942
-2.5812125	to facilitate	-0.022222942
-1.0810963	facilitate mobility	-0.022222942
-2.5646584	of seniors	-0.022222942
-1.078462	seniors from	-0.022222942
-1.078462	access from	-0.022222942
-1.3718067	indirectly from	-0.022222942
-1.548021	from homes	-0.022222942
-2.069387	the vaccine	-0.022222942
-1.3769981	vaccine showed	-0.022222942
-1.6679497	`` [	-0.022222942
-1.0810963	[ 13	-0.022222942
-1.0810963	13 ]	-0.022222942
-1.0810963	] One	-0.022222942
-1.0810963	One patient	-0.022222942
-1.5435109	who was	-0.022222942
-1.0795519	} was	-0.022222942
-1.9382199	have seen	-0.022222942
-1.7525846	has seen	-0.022222942
-1.373951	seen his	-0.022222942
-1.0795519	tell his	-0.022222942
-1.3769981	his ur	-0.022222942
-1.0810963	ur disappear	-0.022222942
-1.0810963	disappear gone	-0.022222942
-1.0810963	gone lly	-0.022222942
-1.0810963	lly ..	-0.022222942
-2.6113355	<s> Just	-0.022222942
-1.0810963	Just imagine	-0.022222942
-2.565368	, if	-0.022222942
-1.078462	imagine if	-0.022222942
-1.078462	But if	-0.022222942
-2.706344	the parents	-0.022222942
-1.9494988	have cancer	-0.022222942
-2.3842733	, they	-0.022222942
-2.0031836	that they	-0.040516652
-1.6681695	and they	-0.022222942
-1.9245561	as they	-0.022222942
-1.8353673	which they	-0.022222942
-2.5812125	to go	-0.022222942
-2.0737436	a surgical	-0.022222942
-1.0810963	surgical operation	-0.022222942
-1.988963	will cost	-0.022222942
-2.6520426	the cost	-0.022222942
-2.706344	the younger	-0.022222942
-1.0810963	younger generation	-0.022222942
-1.0810963	generation thousands	-0.022222942
-2.5646584	of dollars	-0.022222942
-1.3769981	These concerns	-0.022222942
-1.0810963	concerns pushed	-0.022222942
-2.706344	the technology	-0.022222942
-1.0810963	technology forward	-0.022222942
-2.6424992	, thus	-0.022222942
-1.0810963	thus eventually	-0.022222942
-2.706344	the bar	-0.022222942
-1.0810963	bar code	-0.022222942
-1.7554035	we use	-0.022222942
-1.373951	then use	-0.022222942
-1.3769981	use nowadays	-0.022222942
-2.6113355	<s> Measures	-0.022222942
-2.6520426	the government	-0.022222942
-1.9382199	The government	-0.022222942
-2.5413513	to help	-0.022222942
-1.0795519	financial help	-0.022222942
-2.5413513	to ease	-0.022222942
-1.373951	help ease	-0.022222942
-1.3769981	ease aging	-0.022222942
-1.0795519	aging process	-0.022222942
-1.5464143	ageing process	-0.022222942
-2.1224384	in residential	-0.022222942
-1.5435109	from residential	-0.022222942
-2.1069455	are sheltered	-0.022222942
-1.0810963	sheltered linkways	-0.022222942
-2.1069455	are upgraded	-0.022222942
-1.8756975	to allow	-0.022222942
-2.5812125	to access	-0.022222942
-2.5812125	to markets	-0.022222942
-2.6113355	<s> At	-0.022222942
-1.3769981	same time	-0.022222942
-2.0413523	it must	-0.022222942
-2.2379189	be easy	-0.022222942
-2.5812125	to get	-0.022222942
-2.445211	and clean	-0.022222942
-1.0810963	clean ;	-0.022222942
-1.6679497	not sacrifice	-0.022222942
-1.0810963	sacrifice any	-0.022222942
-2.6113355	<s> To	-0.022222942
-1.0810963	To deal	-0.022222942
-2.706344	the limitation	-0.022222942
-2.0587928	a budget	-0.022222942
-1.0795519	national budget	-0.022222942
-1.3769981	budget amount	-0.022222942
-2.2379189	be set	-0.022222942
-1.0810963	set aside	-0.022222942
-1.3769981	allow enough	-0.022222942
-1.0810963	enough funds	-0.022222942
-2.2168236	be used	-0.022222942
-1.6620151	so used	-0.022222942
-2.1735826	for building	-0.022222942
-2.445211	and developing	-0.022222942
-1.9887261	as infrastructure	-0.022222942
-1.0795519	developing infrastructure	-0.022222942
-2.6424992	, creating	-0.022222942
-1.0810963	creating employment	-0.022222942
-1.0795519	employment opportunities	-0.022222942
-1.0795519	job opportunities	-0.022222942
-2.445211	and improving	-0.022222942
-2.706344	the standard	-0.022222942
-2.5646584	of living	-0.022222942
-1.9810938	will benefit	-0.022222942
-2.5151935	to benefit	-0.022222942
-1.3718067	indirectly benefit	-0.022222942
-2.706344	the nation	-0.022222942
-1.1877201	as well	-0.022222942
-1.6620151	may well	-0.022222942
-1.8756975	to increase	-0.022222942
-2.445211	and GDP	-0.022222942
-2.6113355	<s> There	-0.022222942
-1.9494988	have recently	-0.022222942
-2.056244	the ageing	-0.022222942
-2.0613856	is ageing	-0.022222942
-0.716489	ageing population	-0.022222942
-1.8341913	people feel	-0.022222942
-1.0810963	feel strongly	-0.022222942
-1.0795519	strongly about	-0.022222942
-1.373951	only about	-0.022222942
-2.6113355	<s> Moreover	-0.022222942
-2.706344	the reprocessing	-0.022222942
-2.000328	will cut	-0.022222942
-1.0810963	cut off	-0.022222942
-1.0810963	off 96	-0.022222942
-1.6679497	nuclear waste	-0.022222942
-1.0810963	waste produced	-0.022222942
-1.8984506	which consists	-0.022222942
-2.5646584	of plutonium	-0.022222942
-2.445211	and uranium	-0.022222942
-2.4122598	and only	-0.022222942
-1.6620151	not only	-0.022222942
-1.373951	about 1	-0.022222942
-1.0795519	October 1	-0.022222942
-2.5646584	of long	-0.022222942
-1.0810963	long lasting	-0.022222942
-1.0810963	lasting elements	-0.022222942
-2.1069455	are left	-0.022222942
-2.000141	as residue	-0.022222942
-1.9494988	The Elderly	-0.022222942
-2.0737436	a subsidy	-0.022222942
-2.5313036	of $	-0.022222942
-1.0795519	US $	-0.022222942
-1.548021	$ 360	-0.022222942
-1.0810963	360 annually	-0.022222942
-2.1735826	for chronic	-0.022222942
-1.0810963	chronic diseases	-0.022222942
-1.3769981	like diabetes	-0.022222942
-2.6424992	, hypertension	-0.022222942
-2.445211	and high	-0.022222942
-1.0810963	high cholesterol	-0.040516652
-1.345947	in terms	-0.022222942
-2.5646584	of coolant	-0.022222942
-2.565368	, lead	-0.022222942
-1.3718067	reasons lead	-0.022222942
-1.6578624	may lead	-0.022222942
-1.5464143	lead costs	-0.022222942
-1.0795519	helium costs	-0.022222942
-2.2168236	be around	-0.040516652
-0.5407946	costs around	-0.040516652
-1.3769981	around US	-0.022222942
-1.548021	$ 0.24	-0.022222942
-1.0795519	0.24 per	-0.022222942
-1.0795519	5.20 per	-0.040516652
-0.5411411	per 100	-0.022222942
-1.0810963	100 grams	-0.022222942
-1.8962957	( MetalPrice.com	-0.022222942
-1.956114	) while	-0.022222942
-1.0810963	while helium	-0.022222942
-1.548021	$ 5.20	-0.022222942
-2.6113355	<s> Community	-0.022222942
-1.0795519	Community Centres	-0.022222942
-1.0795519	Committee Centres	-0.022222942
-2.445211	and Resident	-0.022222942
-1.0810963	Resident Committee	-0.022222942
-1.548021	been built	-0.022222942
-2.139189	in different	-0.022222942
-2.5646584	of Singapore	-0.022222942
-2.5812125	to provide	-0.022222942
-1.0810963	provide recreational	-0.022222942
-1.0810963	recreational activities	-0.022222942
-2.445211	and programmes	-0.022222942
-2.5812125	to participate	-0.022222942
-2.6520426	the results	-0.022222942
-1.9382199	The results	-0.022222942
-2.5313036	of genetic	-0.022222942
-1.0795519	individual genetic	-0.022222942
-0.5411411	genetic testing	-0.022222942
-1.9881275	it may	-0.022222942
-1.7970688	people may	-0.022222942
-1.3636794	testing may	-0.022222942
-1.0743068	permission may	-0.022222942
-1.6679497	may open	-0.022222942
-1.0810963	open doors	-0.022222942
-2.1735826	for potential	-0.022222942
-1.0795519	potential discrimination	-0.022222942
-1.0795519	social discrimination	-0.022222942
-2.5646584	of job	-0.022222942
-2.445211	and insurance	-0.022222942
-1.0810963	insurance policies	-0.022222942
-2.6113355	<s> Revealing	-0.022222942
-2.5646584	of individual	-0.022222942
-1.3769981	testing without	-0.022222942
-1.3769981	an individuals	-0.022222942
-1.0810963	individuals permission	-0.022222942
-2.706344	the invasion	-0.022222942
-2.5646584	of privacy	-0.022222942
-2.445211	and social	-0.022222942
-2.706344	the reactor	-0.022222942
-2.000328	will leak	-0.040516652
-1.9107032	<s> Firstly	-0.022222942
-1.9494988	have defined	-0.022222942
-2.069387	the problem	-0.022222942
-2.5812125	to invent	-0.022222942
-2.0737436	a product	-0.022222942
-1.8984506	which could	-0.022222942
-1.0810963	could give	-0.022222942
-1.3769981	safety protection	-0.022222942
-1.8984506	can accumulate	-0.022222942
-1.8962957	more wealth	-0.022222942
-1.6422932	by their	-0.022222942
-1.528418	through their	-0.022222942
-2.0695477	in their	-0.022222942
-1.3636794	increase their	-0.022222942
-1.6679497	their work	-0.022222942
-1.8890418	can then	-0.022222942
-1.373951	government then	-0.022222942
-2.5812125	to support	-0.022222942
-1.0810963	support themselves	-0.022222942
-1.6620151	their old	-0.040516652
-1.0795519	years old	-0.022222942
-1.3769981	old age	-0.022222942
-1.548021	This essay	-0.022222942
-1.0810963	essay aims	-0.022222942
-2.5812125	to discuss	-0.022222942
-2.1069455	that channeling	-0.022222942
-1.6679497	other factors	-0.022222942
-1.3769981	only boost	-0.022222942
-1.373951	but indirectly	-0.022222942
-1.6620151	or indirectly	-0.022222942
-1.6620151	elderly too	-0.022222942
-1.373951	carrier too	-0.022222942
-1.9494988	The world	-0.022222942
-1.548021	energy resource	-0.022222942
-2.0758066	is fossil	-0.022222942
-1.0810963	fossil fuel	-0.022222942
-2.0758066	is slowly	-0.022222942
-1.0810963	slowly depleting	-0.022222942
-2.6113355	<s> Secondly	-0.022222942
-2.0758066	is regarding	-0.022222942
-2.706344	the implementation	-0.022222942
-2.445211	and military	-0.022222942
-1.0810963	military aspects	-0.022222942
-2.6424992	, even	-0.022222942
-1.0810963	even though	-0.022222942
-2.706344	the adoption	-0.022222942
-2.706344	the immigrant	-0.022222942
-1.0795519	immigrant policy	-0.022222942
-1.0795519	best policy	-0.022222942
-1.759907	has helped	-0.022222942
-2.0287354	it might	-0.022222942
-1.8310914	they might	-0.022222942
-2.706344	the best	-0.022222942
-2.5812125	to conquer	-0.022222942
-2.6113355	<s> All	-0.022222942
-2.706344	the VHTR	-0.022222942
-2.1069455	are definitely	-0.022222942
-1.0810963	definitely worth	-0.022222942
-2.706344	the money	-0.022222942
-2.445211	and effort	-0.022222942
-1.8363705	with regards	-0.022222942
-1.548021	security issue	-0.022222942
-1.6679497	nuclear power	-0.022222942
-1.0810963	power plants	-0.022222942
-1.8962957	( Nuclear	-0.022222942
-1.0810963	Nuclear Energy	-0.022222942
-1.0810963	Energy Information	-0.022222942
-1.0810963	Information Centre	-0.022222942
-2.6424992	, 2006	-0.022222942
-2.6113355	<s> Such	-0.022222942
-1.0810963	Such short	-0.022222942
-1.0810963	short lifespan	-0.022222942
-2.706344	the battery	-0.022222942
-1.3769981	battery together	-0.022222942
-2.0737436	a few	-0.022222942
-2.5646584	of patients	-0.022222942
-1.0810963	patients '	-0.022222942
-1.0810963	' death	-0.022222942
-1.0810963	death because	-0.022222942
-1.3769981	battery running	-0.022222942
-1.0810963	running out	-0.022222942
-2.0758066	is obligatory	-0.022222942
-2.5812125	to notify	-0.022222942
-1.0795519	notify relatives	-0.022222942
-1.0795519	her relatives	-0.022222942
-2.1069455	that early	-0.022222942
-1.0810963	early recognition	-0.022222942
-2.445211	and treatment	-0.022222942
-2.069387	the disease	-0.022222942
-2.5812125	to interfere	-0.022222942
-2.5812125	to educate	-0.022222942
-1.3769981	less prejudiced	-0.022222942
-2.6113355	<s> Each	-0.022222942
-1.0810963	Each factor	-0.022222942
-1.548021	its own	-0.022222942
-1.0810963	own way	-0.022222942
-2.5646584	of contributing	-0.022222942
-2.5812125	to society	-0.022222942
-2.0737436	a whole	-0.022222942
-1.5502762	benefit directly	-0.022222942
-2.706344	the developments	-0.022222942
-2.6113355	<s> Not	-0.022222942
-1.548021	need financial	-0.022222942
-2.000141	as these	-0.022222942
-1.6679497	their children	-0.022222942
-1.3769981	If countries	-0.022222942
-1.6679497	may cause	-0.022222942
-2.706344	the proportion	-0.040516652
-1.4595416	be spent	-0.022222942
-1.6679497	other important	-0.022222942
-2.6424992	, such	-0.022222942
-2.2379189	be lessened	-0.022222942
-2.6113355	<s> But	-0.022222942
-1.8984506	can precisely	-0.022222942
-1.0810963	precisely evaluate	-0.022222942
-2.706344	the impacts	-0.022222942
-2.706344	the GM	-0.022222942
-1.0810963	GM foods	-0.022222942
-2.706344	the human	-0.022222942
-1.0810963	human body	-0.022222942
-2.445211	and verify	-0.022222942
-2.1069455	are healthy	-0.022222942
-1.8341913	people would	-0.022222942
-1.0810963	would accept	-0.022222942
-2.6113355	<s> According	-0.022222942
-2.5812125	to United	-0.022222942
-1.0810963	United Nations	-0.022222942
-1.0810963	Nations statistics	-0.022222942
-1.6679497	by 2050	-0.022222942
-2.6424992	, one	-0.022222942
-2.5646584	of every	-0.022222942
-1.0810963	every five	-0.022222942
-2.2168236	be 60	-0.022222942
-2.0908287	are 60	-0.040516652
-0.5411411	60 years	-0.022222942
-2.445211	and above	-0.022222942
-2.706344	the total	-0.022222942
-1.0810963	total number	-0.022222942
-2.0758066	is projected	-0.022222942
-1.3769981	around 2	-0.022222942
-1.0810963	2 billion	-0.022222942
-2.6113355	<s> A	-0.022222942
-2.0587928	a carrier	-0.022222942
-1.0795519	A carrier	-0.022222942
-1.7645217	should tell	-0.022222942
-1.6679497	or her	-0.022222942
-2.2379189	be at	-0.022222942
-1.0810963	at risk	-0.022222942
-2.5646584	of getting	-0.022222942
-2.5413513	to being	-0.022222942
-1.6620151	or being	-0.022222942
-1.8962957	( Lea	-0.022222942
-2.6424992	, Williams	-0.022222942
-2.445211	and Donahue	-0.022222942
-2.6424992	, 2005	-0.022222942
-2.6113355	<s> firstly	-0.022222942
-2.706344	the national	-0.022222942
-1.8962957	more essential	-0.022222942
-1.9494988	The {	-0.022222942
-1.0810963	{ Model	-0.022222942
-1.0810963	Model T	-0.022222942
-1.0810963	T }	-0.022222942
-1.3769981	was introduced	-0.022222942
-1.9658949	on October	-0.022222942
-2.6424992	, 1908	-0.022222942
-2.6113355	<s> Most	-0.022222942
-2.706344	the students	-0.022222942
-1.3769981	being spoon	-0.022222942
-1.0810963	spoon fed	0

\3-grams:
-0.06093688	reactors . </s>
-0.06093688	more . </s>
-0.06093688	them . </s>
-0.06093688	done . </s>
-0.06093688	tools . </s>
-0.06093688	issues . </s>
-0.0674963	) . </s>
-0.06093688	concern . </s>
-0.0674963	elderly . </s>
-0.06093688	in . </s>
-0.06093688	industries . </s>
-0.06093688	reasons . </s>
-0.06093688	attack . </s>
-0.06093688	smallpox . </s>
-0.06093688	cases . </s>
-0.06093688	disaster . </s>
-0.06093688	active . </s>
-0.06093688	develop . </s>
-0.06093688	aged . </s>
-0.06093688	areas . </s>
-0.058246803	development . </s>
-0.06093688	advance . </s>
-0.06093688	economy . </s>
-0.06093688	.. . </s>
-0.06093688	dollars . </s>
-0.06093688	nowadays . </s>
-0.06093688	markets . </s>
-0.06093688	well . </s>
-0.06093688	GDP . </s>
-0.06093688	about . </s>
-0.06093688	residue . </s>
-0.06093688	cholesterol . </s>
-0.06093688	grams . </s>
-0.06093688	discrimination . </s>
-0.06093688	policies . </s>
-0.06093688	leak . </s>
-0.06093688	problem . </s>
-0.06093688	age . </s>
-0.06093688	too . </s>
-0.06093688	depleting . </s>
-0.06093688	aspects . </s>
-0.06093688	children . </s>
-0.06093688	lessened . </s>
-0.06093688	billion . </s>
-0.06093688	1908 . </s>
-1.0455353	. '' </s>
-1.0080309	<s> In addition
-0.6938107	In addition ,
-1.0626416	firstly , ,
-0.8889761	all know ,
-0.98218447	nuclear reactors ,
-0.9943453	. more ,
-0.7744972	hydrogen storage ,
-0.7744972	MYE forum ,
-0.7744972	, 08/06/2006 ,
-0.8981153	2007 ) ,
-0.8199269	SCWR ) ,
-0.98218447	and education ,
-0.7744972	of teaching ,
-0.8889761	community ones ,
-0.8889761	growing concern ,
-0.95801365	substantial funding ,
-1.0788	<s> Thus ,
-0.7744972	mentioned before ,
-0.8889761	prevents smallpox ,
-0.8889761	not less ,
-0.7744972	BBC News ,
-0.7744972	) Furthermore ,
-0.8889761	if present ,
-0.98218447	<s> Therefore ,
-1.1814109	the aged ,
-1.0136559	important areas ,
-0.7744972	in sustainability ,
-0.7744972	, economics ,
-0.8889761	, safety ,
-0.7744972	National Laboratory ,
-0.8889761	aged further ,
-0.7744972	technology forward ,
-0.8889761	ageing process ,
-0.7744972	same time ,
-0.8889761	developing infrastructure ,
-0.7744972	the nation ,
-0.98218447	ageing population ,
-0.7744972	<s> Moreover ,
-0.7744972	waste produced ,
-0.7744972	and uranium ,
-0.8889761	October 1 ,
-0.7744972	like diabetes ,
-0.7744972	of coolant ,
-0.6938107	<s> Firstly ,
-0.98218447	the problem ,
-0.7744972	their work ,
-0.7744972	energy resource ,
-0.7744972	fossil fuel ,
-0.7744972	Information Centre ,
-0.98218447	the disease ,
-0.7744972	are healthy ,
-0.7744972	Nations statistics ,
-0.7744972	by 2050 ,
-0.7744972	( Lea ,
-0.7744972	and Donahue ,
-0.7744972	<s> firstly ,
-1.5669404	addition , since
-0.89038396	, since terrorists
-0.8894375	since terrorists know
-1.1131479	we all know
-1.0127505	terrorists know that
-1.1894188	tools are that
-0.86629313	and improve that
-1.0127505	is hardly that
-1.109949	relatives so that
-0.86629313	opponents argue that
-0.86629313	the observation that
-0.86629313	has shown that
-0.86629313	vaccine showed that
-1.141672	ageing population that
-0.86629313	to discuss that
-0.86629313	and verify that
-1.2417667	know that there
-0.876139	that there will
-1.6476905	, it will
-1.0911126	a country will
-1.1668968	five people will
-1.4936049	the elderly will
-0.8772763	advance which will
-0.8772763	operation which will
-0.876139	the reprocessing will
-0.876139	the reactor will
-0.76734334	there will be
-0.76734334	it will be
-0.76734334	people will be
-0.926625	, to be
-0.926625	public to be
-0.926625	spending to be
-0.926625	funds to be
-0.926625	projected to be
-0.57926786	aged should be
-0.57926786	budget should be
-0.57926786	amount should be
-0.8772763	, can be
-0.8772763	care can be
-1.1273538	might not be
-0.876139	it must be
-1.0911126	may well be
-1.0266088	they might be
-1.6498541	will be extra
-0.8894375	could give extra
-1.0468917	be extra precautions
-1.253026	well be taken
-0.8887687	extra precautions taken
-0.8887687	<s> Measures taken
-1.1012025	education , to
-0.9675413	precautions taken to
-1.0624273	use it to
-0.9181408	for them to
-1.2344993	they have to
-0.7967275	Using RFID to
-1.0541015	countries are to
-0.7967275	the right to
-0.7967275	some benefits to
-1.111335	the elderly to
-0.7967275	for hackers to
-0.9181408	using cowpox to
-0.9675413	be given to
-1.0115538	then has to
-0.9675413	the need to
-0.7967275	constant stimulations to
-0.7967275	challenging opportunity to
-1.0466238	the public to
-1.1601807	public spending to
-0.8563552	so as to
-0.8563552	well as to
-0.7967275	ramps leading to
-0.9181408	residential blocks to
-0.7967275	are provided to
-0.7967275	from homes to
-0.9181408	the government to
-0.7967275	are upgraded to
-0.7967275	be easy to
-0.7967275	set aside to
-0.7967275	enough funds to
-0.9181408	so used to
-0.7967275	of living to
-0.58710074	reasons lead to
-0.58710074	may lead to
-0.7967275	of Singapore to
-0.7967275	safety protection to
-0.7967275	essay aims to
-0.9181408	best policy to
-0.7967275	has helped to
-0.7967275	with regards to
-0.7967275	is obligatory to
-0.7967275	to interfere to
-0.7967275	of contributing to
-0.7967275	<s> According to
-0.7967275	is projected to
-1.2808746	taken to safeguard
-0.936889	, , the
-0.936889	concern , the
-0.936889	before , the
-0.936889	Moreover , the
-1.0357425	hardly that the
-1.0493805	not be the
-0.84036076	benefits to the
-0.84036076	given to the
-0.922696	lead to the
-0.84036076	protection to the
-0.84036076	regards to the
-0.7864816	to safeguard the
-1.3753873	to the the
-0.6510999	goes for the
-0.70253646	funding for the
-0.6510999	spending for the
-0.6510999	programmes for the
-0.7864816	to sabotage the
-0.9784738	taken by the
-0.5082643	means of the
-0.5082643	issues of the
-0.50500256	% of the
-0.50500256	areas of the
-0.5082643	spite of the
-0.5446594	terms of the
-0.5082643	adoption of the
-0.5082643	lifespan of the
-0.5082643	because of the
-0.5082643	treatment of the
-0.5082643	impacts of the
-0.5082643	Most of the
-0.7864816	<s> For the
-1.020702	who have the
-0.99289083	whole and the
-0.99289083	above and the
-0.9046409	, but the
-0.963469	, is the
-0.8738134	here is the
-1.043959	beds in the
-0.7599318	faced with the
-0.7599318	deal with the
-0.35764992	Based on the
-0.33533055	spending on the
-0.35764992	research on the
-0.38305968	spent on the
-0.35764992	foods on the
-0.9046409	prejudiced against the
-0.952443	was given the
-0.7864816	This reduces the
-0.7864816	and releases the
-0.952443	Not all the
-0.7864816	can prevent the
-0.7864816	to let the
-0.9046409	eventually came the
-0.952443	indirectly from the
-0.9046409	have seen the
-0.952443	imagine if the
-0.9046409	will cost the
-0.7864816	concerns pushed the
-0.9046409	to ease the
-1.0016845	to allow the
-0.7864816	<s> At the
-0.7864816	and improving the
-0.5816884	to benefit the
-0.5816884	indirectly benefit the
-0.7864816	<s> Revealing the
-0.7864816	have defined the
-0.7864816	only boost the
-0.7864816	is regarding the
-0.7864816	even though the
-0.7864816	to conquer the
-0.7864816	<s> All the
-0.7864816	definitely worth the
-0.7864816	to educate the
-0.7864816	may cause the
-0.7864816	precisely evaluate the
-0.7864816	of getting the
-1.2335405	safeguard the nuclear
-1.6757729	of the nuclear
-1.2771609	issue of nuclear
-1.2422849	investing in nuclear
-1.1011084	the nuclear reactors
-0.9832198	reactors , it
-1.1506788	Thus , it
-0.9832198	further , it
-0.9832198	process , it
-0.9832198	time , it
-1.231814	all for it
-1.0337073	. Thus it
-1.0337073	`` If it
-1.1701136	<s> Therefore it
-1.0337073	then use it
-1.5924739	will be more
-1.8780878	on the more
-1.2269737	hospital for more
-1.7268462	) . more
-1.2116209	China a more
-0.8786357	sacrifice any more
-0.8786357	can accumulate more
-1.2060169	be more difficult
-0.8894375	is very difficult
-0.48295772	more difficult for
-0.48295772	very difficult for
-0.86629313	same goes for
-0.62225175	and funding for
-0.62225175	insufficient funding for
-1.0750759	nuclear energy for
-0.86629313	acute hospital for
-1.0750759	'm all for
-1.3371826	public spending for
-0.86629313	proper concept for
-1.0127505	be used for
-0.86629313	360 annually for
-0.86629313	and programmes for
-0.86629313	open doors for
-1.5009401	difficult for them
-0.8894375	would accept them
-1.2808746	them to sabotage
-1.2348523	sabotage the country
-1.6793495	of the country
-1.4783424	of a country
-1.2746079	statistics , by
-1.1077644	Measures taken by
-1.356586	the country by
-1.2725719	care of by
-1.1530921	country by means
-1.1276529	work , of
-0.8114904	by means of
-0.93777466	some issues of
-0.4645819	the quality of
-0.4645819	.The quality of
-0.8114904	the difficulty of
-0.93777466	taken care of
-0.93777466	few cases of
-0.3797679	75 % of
-0.3797679	96 % of
-0.3797679	1 % of
-0.8114904	the occurrence of
-0.6076975	other areas of
-0.6076975	different areas of
-0.6076975	essential areas of
-1.0316741	of development of
-0.8114904	In spite of
-0.8114904	facilitate mobility of
-0.93777466	the cost of
-0.8114904	generation thousands of
-0.8114904	the limitation of
-0.8114904	the standard of
-0.8114904	which consists of
-0.8114904	a subsidy of
-0.7230046	in terms of
-0.4645819	the results of
-0.4645819	The results of
-0.8114904	the invasion of
-0.8114904	other factors of
-0.8114904	the adoption of
-0.8114904	security issue of
-0.8114904	short lifespan of
-0.8114904	death because of
-0.8114904	running out of
-0.8114904	and treatment of
-0.8114904	own way of
-0.8114904	the proportion of
-0.8114904	the impacts of
-0.8114904	, one of
-0.8114904	total number of
-0.8114904	at risk of
-0.8114904	<s> Most of
-0.9983731	nuclear reactors .
-1.0421096	for it .
-1.0110027	any more .
-0.90199053	accept them .
-0.90199053	be done .
-0.90199053	dynamics tools .
-0.90199053	many issues .
-0.6758874	want ) .
-0.6758874	2006 ) .
-0.6758874	2005 ) .
-0.784461	that low .
-0.90199053	a concern .
-1.2474867	the elderly .
-1.0404352	participate in .
-0.784461	innovating industries .
-0.90199053	security reasons .
-0.784461	is highly .
-0.784461	to attack .
-0.90199053	against smallpox .
-0.90199053	acute cases .
-0.784461	a disaster .
-0.784461	remain active .
-0.784461	to develop .
-1.207308	the aged .
-1.0283319	public areas .
-0.6603813	and development .
-0.71299905	's development .
-0.90199053	in advance .
-0.9494853	improved economy .
-0.784461	lly .. .
-0.784461	of dollars .
-0.784461	use nowadays .
-0.784461	to markets .
-1.0585215	as well .
-0.784461	and GDP .
-0.90199053	strongly about .
-0.784461	as residue .
-0.784461	high cholesterol .
-0.9983731	100 grams .
-0.90199053	social discrimination .
-0.784461	insurance policies .
-0.784461	will leak .
-0.9983731	the problem .
-0.784461	old age .
-0.90199053	elderly too .
-0.784461	slowly depleting .
-0.784461	military aspects .
-0.784461	their children .
-0.784461	be lessened .
-0.784461	2 billion .
-0.784461	, 1908 .
-0.784461	spoon fed .
-1.2860787	For the compressed
-0.89038396	the compressed hydrogen
-0.89038396	compressed hydrogen storage
-1.2815529	storage , many
-0.8894375	people raises many
-1.0468917	, many numerical
-0.89038396	many numerical modeling
-0.8811469	numerical modeling have
-1.0993587	ones who have
-0.8811469	the parents have
-0.9246337	, they have
-0.7466504	and they have
-0.8811469	<s> There have
-1.0337073	Committee Centres have
-1.2144178	modeling have been
-1.0445776	have also been
-0.8887687	have recently been
-1.5127403	can be done
-1.1131479	have been done
-1.0445776	been done through
-0.8887687	to go through
-0.8887687	more wealth through
-1.1147332	done through computational
-0.89038396	through computational fluid
-0.89038396	computational fluid dynamics
-0.8894375	fluid dynamics tools
-0.8894375	education serving tools
-0.89038396	<s> Using RFID
-1.2808746	RFID to track
-1.2638134	healthy , people
-1.2212898	population that people
-1.2635368	number of people
-0.8811469	to track people
-0.8811469	as these people
-0.8811469	every five people
-1.1951702	track people raises
-1.0455353	raises many issues
-1.1131479	been some issues
-1.0301435	surveillance '' (
-0.8786357	Supercritical-Water-cooled Reactor (
-0.8786357	and proliferation-resistance (
-1.1652421	100 grams (
-1.0301435	carrier too (
-0.8786357	power plants (
-1.2079812	<s> ( MYE
-0.89038396	( MYE forum
-1.2836028	forum , 08/06/2006
-1.2836028	08/06/2006 , para.1
-0.8786357	, para.1 )
-0.8786357	`` want )
-0.7746034	, 2007 )
-0.8786357	( SCWR )
-0.8786357	( MetalPrice.com )
-0.8786357	, 2006 )
-0.8786357	, 2005 )
-1.2190025	para.1 ) .The
-1.8360093	for the quality
-0.8894375	) .The quality
-1.5601866	quality of infra-structure
-1.1121595	population , and
-1.1121595	uranium , and
-0.8290007	of infra-structure and
-0.8290007	to change and
-1.0162666	in security and
-0.9613571	the expenditure and
-0.8290007	among Americans and
-0.8290007	more competitive and
-1.0162666	its economy and
-0.8290007	, reliability and
-0.6037544	the research and
-0.6037544	further research and
-0.9613571	to blocks and
-0.8290007	have cancer and
-0.8290007	to get and
-0.8290007	for building and
-0.9613571	as infrastructure and
-0.4706212	employment opportunities and
-0.4706212	job opportunities and
-0.8290007	of plutonium and
-0.8290007	, hypertension and
-0.9613571	Community Centres and
-0.8290007	recreational activities and
-0.8290007	of privacy and
-0.8355131	years old and
-0.8290007	the money and
-0.8290007	early recognition and
-0.8290007	a whole and
-0.8290007	human body and
-1.0738419	and above and
-0.8290007	, Williams and
-1.1651716	infra-structure and education
-1.1651716	infrastructure and education
-1.188266	and education serving
-1.0127505	serving tools are
-1.0750759	people who are
-1.0127505	in China are
-1.1557907	residential areas are
-1.1626616	linkways which are
-0.86629313	outdoor facilities are
-1.1554537	that they are
-0.86629313	lasting elements are
-0.86629313	The Elderly are
-0.86629313	the VHTR are
-0.86629313	If countries are
-0.86629313	the students are
-1.2417667	are that low
-1.2872412	low . The
-1.2839955	At the same
-1.2158345	. The same
-1.0468917	The same goes
-1.5601866	quality of teaching
-1.2815529	teaching , but
-1.1131479	the economy but
-1.2839955	but the main
-1.0455353	world 's main
-1.0468917	the main point
-0.89038396	main point here
-1.4172915	) , is
-1.1992944	fuel , is
-0.9255747	, it is
-0.7996982	Thus it is
-0.7996982	Therefore it is
-0.8786357	point here is
-0.8786357	the database is
-1.1291887	, which is
-0.8786357	<s> Secondly is
-1.1652421	and above is
-1.5676947	is the ones
-0.8894375	with community ones
-1.1919178	of people who
-1.0445776	the ones who
-0.8887687	One patient who
-1.2860787	have the right
-1.2808746	right to change
-1.2733413	change and improve
-1.2417667	improve that entire
-0.89038396	that entire thing
-1.6042106	it is hardly
-0.8894375	entire thing hardly
-1.0468917	thing hardly taking
-1.2429973	aged , a
-1.4895105	lead to a
-1.1665391	occurrence of a
-1.1665391	development of a
-1.0830202	go through a
-0.87118816	hardly taking a
-1.0196244	present China a
-1.0830202	are given a
-1.1896278	society as a
-0.87118816	to invent a
-1.0196244	or being a
-1.2352167	taking a concern
-0.8894375	the growing concern
-1.7373115	elderly . This
-1.2853202	<s> This does
-0.89038396	This does bring
-1.112029	recently been some
-0.8887687	does bring some
-1.19263	together with some
-1.1147332	bring some benefits
-1.0577519	to the elderly
-0.98854357	the the elderly
-1.185348	for the elderly
-1.1094029	and the elderly
-0.98854357	allow the elderly
-1.1094029	benefit the elderly
-0.89038396	<s> Developing new
-0.89038396	Developing new inventions
-0.89038396	new inventions requires
-0.89038396	inventions requires substantial
-1.5404729	research and funding
-0.8887687	requires substantial funding
-0.8887687	of insufficient funding
-1.2746079	funding , so
-1.2324553	students are so
-0.8862132	be limited so
-1.0409238	notify relatives so
-1.1530921	, so engineers
-1.4658141	addition , in
-0.86386615	so engineers in
-0.86386615	stop investing in
-1.0711576	of energy in
-0.86386615	the beds in
-0.86386615	will result in
-0.86386615	representing advances in
-1.009354	aging process in
-0.86386615	been built in
-0.86386615	to participate in
-1.009354	potential discrimination in
-0.86386615	support themselves in
-0.86386615	the implementation in
-1.2437437	engineers in China
-1.0455353	century present China
-1.2417667	China are faced
-0.8811469	are faced with
-1.0337073	came up with
-0.8811469	acute hospitals with
-0.8811469	To deal with
-0.8811469	and effort with
-0.8811469	battery together with
-1.5717068	with the difficulty
-1.2800725	difficulty of insufficient
-1.5042844	funding for innovating
-0.89038396	for innovating industries
-1.2872412	highly . Thus
-1.7260318	Thus , opponents
-0.89038396	, opponents argue
-1.2268367	argue that we
-1.1750404	<s> As we
-1.1035413	But if we
-0.88367265	bar code we
-0.88367265	clean ; we
-1.1666001	that we should
-1.5452199	the aged should
-1.0373006	national budget should
-0.88367265	budget amount should
-1.0373006	A carrier should
-1.1789899	we should stop
-0.89038396	should stop investing
-1.150139	in nuclear energy
-1.2771609	out of energy
-1.0445776	's main energy
-1.912503	to the security
-1.2466676	energy for security
-1.2422849	implementation in security
-1.1131479	for security reasons
-1.1513606	some other reasons
-1.188266	<s> As mentioned
-0.89038396	As mentioned before
-1.8434808	, the database
-1.2376031	database is highly
-1.6089396	it is very
-1.5042844	difficult for hackers
-1.2808746	hackers to attack
-0.8786357	<s> Based on
-1.0301435	public expenditure on
-1.1287849	public spending on
-1.0988243	The research on
-0.7746034	be spent on
-0.8786357	GM foods on
-0.8786357	was introduced on
-1.9932601	on the observation
-1.2396439	observation that cowpox
-0.8894375	into using cowpox
-1.0455353	that cowpox prevents
-1.1513606	it `` prevents
-1.0455353	cowpox prevents smallpox
-1.0455353	immunity against smallpox
-1.2836028	smallpox , Jenner
-0.89038396	, Jenner began
-0.89038396	Jenner began researching
-0.89038396	began researching into
-0.89038396	researching into using
-1.2808746	cowpox to build
-0.89038396	to build immunity
-0.8894375	build immunity against
-0.8894375	less prejudiced against
-0.89038396	<s> By linking
-0.8894375	By linking up
-1.0455353	also came up
-1.2825269	in the acute
-1.2046318	for more acute
-1.0445776	linking up acute
-1.1147332	up acute hospitals
-1.1956446	hospitals with community
-1.2836028	ones , appropriate
-1.1131479	be taken care
-0.8894375	, appropriate care
-1.2691771	present , can
-0.791587	if we can
-0.791587	; we can
-1.0373006	appropriate care can
-0.88367265	preventive acts can
-0.92700964	, they can
-0.84392637	which they can
-1.5100113	can be given
-1.2381475	Elderly are given
-1.0445776	who was given
-1.1147332	. This reduces
-1.2839955	reduces the expenditure
-1.1945462	channeling public expenditure
-1.2733413	expenditure and releases
-1.2860787	releases the beds
-1.1147332	the acute hospital
-1.1131479	more acute cases
-0.8894375	a few cases
-0.89038396	<s> An opinion
-0.89038396	An opinion poll
-0.89038396	opinion poll conducted
-0.89038396	poll conducted among
-0.89038396	conducted among Americans
-1.2733413	Americans and Europeans
-0.88367265	and Europeans has
-1.1750404	the vaccine has
-1.0373006	government then has
-1.0373006	immigrant policy has
-0.88367265	Each factor has
-1.1778467	Europeans has shown
-1.2417667	shown that 75
-0.8887687	that 75 %
-0.8887687	off 96 %
-1.0445776	about 1 %
-2.2677436	of the respondents
-1.2746079	Furthermore , ``
-1.2324553	showed that ``
-1.2244073	If it ``
-0.8862132	the respondents ``
-1.1530921	respondents `` want
-1.2746079	more , not
-1.2183131	country will not
-1.4189796	we can not
-1.0409238	it might not
-1.8028942	to be less
-1.1513606	, not less
-1.2836028	less , surveillance
-1.2872412	it . ''
-0.8894375	, surveillance ''
-1.2079812	'' ( BBC
-0.89038396	( BBC News
-1.2211025	News , 2007
-1.2211025	Laboratory , 2007
-1.4503471	2007 ) Furthermore
-1.1513606	, `` If
-1.0468917	`` prevents criminal
-0.89038396	prevents criminal behaviour
-0.8862132	criminal behaviour or
-1.0409238	tell his or
-1.1800237	the disease or
-0.8862132	benefit directly or
-1.1530921	behaviour or improves
-1.174721	factor has its
-0.8887687	or improves its
-1.1850648	to increase its
-1.1147332	improves its detection
-0.89038396	its detection I
-0.89038396	detection I 'm
-1.1755427	As we all
-0.8887687	I 'm all
-0.8887687	<s> Not all
-1.188266	<s> These preventive
-0.89038396	These preventive acts
-1.2084	acts can prevent
-1.2860787	prevent the occurrence
-1.4820268	of a disaster
-1.2836028	know , our
-0.89038396	, our brains
-1.2825269	seen the need
-0.8887687	our brains need
-1.5691049	the aged need
-1.1147332	brains need constant
-0.89038396	need constant stimulations
-1.2808746	stimulations to remain
-0.89038396	to remain active
-1.7496055	<s> The 21st
-0.89038396	The 21st century
-0.8894375	21st century present
-1.1131479	, if present
-1.2079812	a more competitive
-1.2733413	competitive and challenging
-0.89038396	and challenging opportunity
-1.2808746	opportunity to develop
-1.2638134	Therefore , public
-1.26173	homes to public
-1.2659762	educate the public
-1.1810837	limitation of public
-1.1810837	proportion of public
-1.1363249	increase their public
-0.8811469	that channeling public
-0.6475879	, public spending
-0.5899296	of public spending
-0.6475879	their public spending
-1.398763	for the aged
-1.2459025	on the aged
-1.1116151	against the aged
-1.1116151	all the aged
-1.6551893	should be limited
-1.2481086	nation , as
-1.1229367	limited so as
-1.0231025	financial help as
-1.2449185	as well as
-0.8736565	are left as
-1.0231025	her relatives as
-0.8736565	to society as
-0.8736565	the developments as
-0.8736565	, such as
-1.5617168	as to let
-1.2825269	let the other
-1.112029	with some other
-0.9250241	expenditure on other
-1.0273248	spent on other
-1.1805024	to public areas
-1.1363249	the other areas
-1.0337073	in residential areas
-0.8811469	in different areas
-0.8811469	other important areas
-0.8811469	more essential areas
-1.0664321	the country 's
-0.8894375	The world 's
-1.2771609	factors of development
-1.5404729	research and development
-0.8935697	country 's development
-1.2437437	energy in advance
-1.342029	's development advance
-1.1476619	produced , which
-1.1476619	problem , which
-1.1476619	resource , which
-1.2635368	, of which
-1.0337073	development advance which
-0.8811469	surgical operation which
-0.8811469	sheltered linkways which
-0.8811469	a product which
-1.4629931	which will result
-1.2437437	result in an
-0.8894375	testing without an
-1.0468917	in an improved
-1.2825269	boost the economy
-1.112029	increase its economy
-0.8887687	an improved economy
-1.256387	<s> In spite
-2.2677436	of the growing
-1.8434808	, the Supercritical-Water-cooled
-0.89038396	the Supercritical-Water-cooled Reactor
-1.2079812	Reactor ( SCWR
-1.5669404	) , representing
-0.89038396	, representing advances
-1.2458129	advances in sustainability
-1.2836028	sustainability , economics
-1.2815529	economics , safety
-1.0455353	give extra safety
-1.2836028	safety , reliability
-1.2733413	reliability and proliferation-resistance
-1.2079812	proliferation-resistance ( Idaho
-0.89038396	( Idaho National
-0.89038396	Idaho National Laboratory
-1.5717068	is the proper
-0.89038396	the proper concept
-1.2479829	concept for further
-1.5723176	the aged further
-1.2825269	All the research
-1.7380583	<s> The research
-1.0445776	for further research
-0.89038396	<s> Town Councils
-1.2158345	Centres have also
-0.8894375	Town Councils also
-1.0455353	Councils also came
-0.8894375	thus eventually came
-1.1956446	up with barrier-free
-0.89038396	with barrier-free features
-0.8894375	barrier-free features like
-0.8894375	chronic diseases like
-1.0468917	features like ramps
-0.89038396	like ramps leading
-1.2788928	leading to blocks
-1.0455353	from residential blocks
-1.2733413	blocks and outdoor
-0.89038396	and outdoor facilities
-1.2417667	facilities are provided
-1.2808746	provided to facilitate
-0.89038396	to facilitate mobility
-1.2800725	mobility of seniors
-0.8887687	of seniors from
-0.8887687	to access from
-1.0445776	or indirectly from
-1.1147332	seniors from homes
-1.787793	on the vaccine
-1.2367121	given the vaccine
-1.188266	the vaccine showed
-1.1530921	that `` [
-0.89038396	`` [ 13
-0.89038396	[ 13 ]
-0.89038396	13 ] One
-0.89038396	] One patient
-1.1131479	patient who was
-0.8894375	T } was
-1.5593853	they have seen
-1.1760138	vaccine has seen
-1.0455353	has seen his
-0.8894375	should tell his
-1.0468917	seen his ur
-0.89038396	his ur disappear
-0.89038396	ur disappear gone
-0.89038396	disappear gone lly
-0.89038396	gone lly ..
-0.89038396	<s> Just imagine
-1.2801075	disease , if
-0.8887687	Just imagine if
-0.8887687	<s> But if
-1.2860787	if the parents
-1.2178438	parents have cancer
-1.0322945	Firstly , they
-1.2268367	verify that they
-1.343514	, and they
-1.1531558	cancer and they
-1.2133424	relatives as they
-1.1954265	of which they
-1.2808746	have to go
-1.2373179	through a surgical
-0.89038396	a surgical operation
-1.45983	which will cost
-2.2485118	of the cost
-1.2860787	cost the younger
-0.89038396	the younger generation
-0.89038396	younger generation thousands
-1.2800725	thousands of dollars
-1.188266	<s> These concerns
-0.89038396	These concerns pushed
-1.2860787	pushed the technology
-0.89038396	the technology forward
-1.2836028	forward , thus
-0.89038396	, thus eventually
-1.2860787	came the bar
-0.89038396	the bar code
-1.1767222	code we use
-1.0455353	can then use
-1.0468917	we use nowadays
-1.2839955	by the government
-1.7428074	<s> The government
-1.2788928	government to help
-0.8894375	need financial help
-1.2788928	helped to ease
-1.0455353	to help ease
-1.0468917	help ease aging
-0.8894375	ease aging process
-1.2844858	the ageing process
-1.2437437	process in residential
-1.1131479	access from residential
-1.2417667	areas are sheltered
-0.89038396	are sheltered linkways
-1.2417667	which are upgraded
-1.2038925	upgraded to allow
-1.2038925	aside to allow
-1.5617168	elderly to access
-1.2808746	blocks to markets
-1.0468917	the same time
-1.7301406	, it must
-1.2566731	must be easy
-1.2808746	easy to get
-1.2733413	get and clean
-0.89038396	and clean ;
-1.1530921	can not sacrifice
-0.89038396	not sacrifice any
-0.89038396	<s> To deal
-1.5717068	with the limitation
-1.2352167	, a budget
-0.8894375	the national budget
-1.0468917	a budget amount
-1.6551893	should be set
-0.89038396	be set aside
-1.188266	to allow enough
-0.89038396	allow enough funds
-1.8028942	to be used
-1.1513606	are so used
-1.2498475	used for building
-1.2733413	building and developing
-1.2245053	such as infrastructure
-0.8894375	and developing infrastructure
-1.2836028	infrastructure , creating
-0.89038396	, creating employment
-0.8894375	creating employment opportunities
-0.8894375	of job opportunities
-1.5474461	opportunities and improving
-1.2860787	improving the standard
-1.2800725	standard of living
-1.2232481	elderly will benefit
-1.2774951	living to benefit
-1.0445776	but indirectly benefit
-1.5717068	benefit the nation
-0.9525279	, as well
-0.9525279	developments as well
-1.1513606	people may well
-1.2038925	are to increase
-1.4249136	as to increase
-1.2733413	economy and GDP
-1.2178438	There have recently
-1.9294977	of the ageing
-1.2348523	ease the ageing
-1.4789882	which is ageing
-0.6830821	the ageing population
-0.6337757	is ageing population
-1.1951702	that people feel
-0.89038396	people feel strongly
-0.8894375	feel strongly about
-1.0455353	and only about
-1.8434808	, the reprocessing
-1.2263813	reprocessing will cut
-0.89038396	will cut off
-0.89038396	cut off 96
-1.437996	the nuclear waste
-0.89038396	nuclear waste produced
-1.5481889	, which consists
-1.2800725	consists of plutonium
-1.2733413	plutonium and uranium
-1.5433496	, and only
-1.1513606	will not only
-1.0455353	only about 1
-0.8894375	on October 1
-1.7179351	% of long
-0.89038396	of long lasting
-0.89038396	long lasting elements
-1.2417667	elements are left
-1.2263514	left as residue
-1.7496055	<s> The Elderly
-1.2373179	given a subsidy
-1.2783654	subsidy of $
-0.7827286	around US $
-1.1147332	of $ 360
-0.89038396	$ 360 annually
-1.2498475	annually for chronic
-0.89038396	for chronic diseases
-1.0468917	diseases like diabetes
-1.2836028	diabetes , hypertension
-1.2733413	hypertension and high
-0.89038396	and high cholesterol
-1.0328212	, in terms
-1.0328212	discrimination in terms
-1.2800725	cost of coolant
-1.2801075	coolant , lead
-1.0445776	other reasons lead
-1.150139	permission may lead
-1.1141696	, lead costs
-0.8894375	while helium costs
-1.8028942	to be around
-0.49026144	lead costs around
-0.49026144	helium costs around
-0.8951354	costs around US
-1.2853202	US $ 0.24
-0.8894375	$ 0.24 per
-0.8894375	$ 5.20 per
-0.4905545	0.24 per 100
-0.4905545	5.20 per 100
-0.7834382	per 100 grams
-1.2079812	grams ( MetalPrice.com
-1.2190025	MetalPrice.com ) while
-0.89038396	) while helium
-1.2853202	US $ 5.20
-0.8894375	<s> Community Centres
-0.8894375	Resident Committee Centres
-1.2733413	Centres and Resident
-0.89038396	and Resident Committee
-1.1147332	also been built
-1.2458129	built in different
-1.7179351	areas of Singapore
-1.2808746	Singapore to provide
-0.89038396	to provide recreational
-0.89038396	provide recreational activities
-1.2733413	activities and programmes
-1.5617168	elderly to participate
-1.2839955	Revealing the results
-1.7428074	<s> The results
-1.5569386	results of genetic
-0.8894375	of individual genetic
-0.4905545	of genetic testing
-0.4905545	individual genetic testing
-1.7046286	, it may
-1.1867969	these people may
-1.1800237	genetic testing may
-0.8862132	individuals permission may
-1.1530921	testing may open
-0.89038396	may open doors
-1.2498475	doors for potential
-0.8894375	for potential discrimination
-0.8894375	and social discrimination
-1.5601866	terms of job
-1.5474461	opportunities and insurance
-0.89038396	and insurance policies
-1.5601866	results of individual
-1.188266	genetic testing without
-1.0468917	without an individuals
-0.89038396	an individuals permission
-1.9276019	to the invasion
-1.2800725	invasion of privacy
-1.2733413	privacy and social
-1.2860787	that the reactor
-1.2263813	reactor will leak
-1.5638295	they have defined
-1.2367121	defined the problem
-1.2367121	conquer the problem
-1.2808746	need to invent
-1.2373179	invent a product
-1.2084	product which could
-0.89038396	which could give
-1.0468917	extra safety protection
-1.4324379	they can accumulate
-1.2079812	accumulate more wealth
-1.1454853	of by their
-1.1077644	wealth through their
-1.2367345	themselves in their
-1.1800237	to increase their
-1.1530921	through their work
-1.4293585	they can then
-1.0455353	The government then
-1.2808746	it to support
-0.89038396	to support themselves
-1.1513606	in their old
-0.7827286	60 years old
-1.0468917	their old age
-1.2853202	<s> This essay
-0.89038396	This essay aims
-1.2808746	aims to discuss
-1.2417667	discuss that channeling
-1.343415	on other factors
-1.0468917	not only boost
-1.0455353	economy but indirectly
-1.1513606	directly or indirectly
-1.5522541	the elderly too
-1.0455353	a carrier too
-1.7496055	<s> The world
-1.1147332	main energy resource
-1.4825279	which is fossil
-0.89038396	is fossil fuel
-1.4825279	, is slowly
-0.89038396	is slowly depleting
-1.2376031	Secondly is regarding
-1.2860787	regarding the implementation
-1.2733413	security and military
-0.89038396	and military aspects
-1.7260318	Thus , even
-0.89038396	, even though
-1.2860787	though the adoption
-2.2677436	of the immigrant
-0.8894375	the immigrant policy
-0.8894375	the best policy
-1.1778467	policy has helped
-1.7242401	, it might
-1.194492	as they might
-1.2860787	be the best
-1.2808746	policy to conquer
-1.8434808	for the VHTR
-1.2417667	VHTR are definitely
-0.89038396	are definitely worth
-1.2860787	worth the money
-1.2733413	money and effort
-1.1956446	effort with regards
-1.1147332	the security issue
-1.1530921	of nuclear power
-0.89038396	nuclear power plants
-1.2079812	plants ( Nuclear
-0.89038396	( Nuclear Energy
-0.89038396	Nuclear Energy Information
-0.89038396	Energy Information Centre
-1.2836028	Centre , 2006
-0.89038396	<s> Such short
-0.89038396	Such short lifespan
-1.8368387	of the battery
-1.188266	the battery together
-1.2373179	to a few
-1.2800725	cases of patients
-0.89038396	of patients '
-0.89038396	patients ' death
-0.89038396	' death because
-1.188266	the battery running
-0.89038396	battery running out
-1.6089396	it is obligatory
-1.2808746	obligatory to notify
-0.8894375	to notify relatives
-0.8894375	or her relatives
-1.2417667	so that early
-0.89038396	that early recognition
-1.2733413	recognition and treatment
-1.9386173	of the disease
-1.2367121	getting the disease
-1.2808746	has to interfere
-1.2808746	interfere to educate
-1.0468917	be less prejudiced
-0.89038396	<s> Each factor
-1.1147332	has its own
-0.89038396	its own way
-1.2800725	way of contributing
-1.2808746	contributing to society
-1.2373179	as a whole
-1.1155219	will benefit directly
-1.2860787	from the developments
-1.1147332	aged need financial
-1.2263514	help as these
-1.1530921	by their children
-1.0468917	<s> If countries
-1.1530921	it may cause
-1.2860787	cause the proportion
-1.3669816	to be spent
-1.3044611	should be spent
-1.343415	on other important
-1.2836028	areas , such
-1.8105034	to be lessened
-1.4324379	we can precisely
-0.89038396	can precisely evaluate
-1.2860787	evaluate the impacts
-2.2677436	of the GM
-0.89038396	the GM foods
-1.9932601	on the human
-0.89038396	the human body
-1.2733413	body and verify
-1.2417667	they are healthy
-1.1951702	, people would
-0.89038396	people would accept
-1.2808746	According to United
-0.89038396	to United Nations
-0.89038396	United Nations statistics
-1.1530921	, by 2050
-1.2836028	2050 , one
-1.2800725	one of every
-0.89038396	of every five
-1.6498541	will be 60
-1.2396439	who are 60
-0.4905545	be 60 years
-0.4905545	are 60 years
-1.0346035	old and above
-1.5717068	and the total
-0.89038396	the total number
-1.2376031	above is projected
-1.0468917	be around 2
-0.89038396	around 2 billion
-1.2352167	being a carrier
-0.8894375	<s> A carrier
-1.1789899	carrier should tell
-1.1530921	his or her
-1.2566731	might be at
-0.89038396	be at risk
-1.2800725	risk of getting
-1.2788928	used to being
-1.1513606	disease or being
-1.2079812	too ( Lea
-1.2836028	Lea , Williams
-1.2733413	Williams and Donahue
-1.2836028	Donahue , 2005
-1.8434808	, the national
-1.2079812	the more essential
-1.7496055	<s> The {
-0.89038396	The { Model
-0.89038396	{ Model T
-0.89038396	Model T }
-1.0468917	} was introduced
-1.2206889	introduced on October
-1.2836028	1 , 1908
-2.2677436	of the students
-1.0468917	to being spoon
-0.89038396	being spoon fed

\end\
